digraph Tree {
node [shape=box, style="filled, rounded", color="black", fontname=helvetica] ;
edge [fontname=helvetica] ;
0 [label="node #0\nPCIP14 <= 0.03\nmse = 4421311607.05\nsamples = 882\nvalue = 212358.22", fillcolor="#f5cfb4"] ;
1 [label="node #1\nPCIP51 <= 0.93\nmse = 3515597615.19\nsamples = 706\nvalue = 200607.98", fillcolor="#f6d2b9"] ;
0 -> 1 [labeldistance=2.5, labelangle=45, headlabel="True"] ;
2 [label="node #2\nPCIP45 <= 0.0\nmse = 2631061398.18\nsamples = 669\nvalue = 196800.29", fillcolor="#f6d3ba"] ;
1 -> 2 ;
3 [label="node #3\nPCIP39 <= 0.88\nmse = 3154845607.18\nsamples = 226\nvalue = 168346.76", fillcolor="#f7dac5"] ;
2 -> 3 ;
4 [label="node #4\nPCIP26 <= 0.56\nmse = 2870395199.61\nsamples = 213\nvalue = 172820.62", fillcolor="#f7d9c3"] ;
3 -> 4 ;
5 [label="node #5\nPCIP51 <= 0.74\nmse = 2479882651.89\nsamples = 211\nvalue = 171566.98", fillcolor="#f7d9c4"] ;
4 -> 5 ;
6 [label="node #6\nPCIP51 <= 0.0\nmse = 2440740431.12\nsamples = 203\nvalue = 173790.07", fillcolor="#f7d9c3"] ;
5 -> 6 ;
7 [label="node #7\nPCIP01 <= 0.29\nmse = 2135898226.45\nsamples = 98\nvalue = 162232.62", fillcolor="#f8dcc7"] ;
6 -> 7 ;
8 [label="node #8\nPCIP40 <= 0.03\nmse = 2002328971.43\nsamples = 97\nvalue = 163260.0", fillcolor="#f8dbc7"] ;
7 -> 8 ;
9 [label="node #9\nPCIP43 <= 0.03\nmse = 1895395240.5\nsamples = 96\nvalue = 164653.62", fillcolor="#f8dbc6"] ;
8 -> 9 ;
10 [label="node #10\nPCIP04 <= 0.03\nmse = 1616043638.16\nsamples = 80\nvalue = 159382.35", fillcolor="#f8dcc8"] ;
9 -> 10 ;
11 [label="node #11\nPCIP26 <= 0.03\nmse = 1408305464.23\nsamples = 71\nvalue = 154944.86", fillcolor="#f8ddca"] ;
10 -> 11 ;
12 [label="node #12\nPCIP42 <= 0.37\nmse = 1283648866.44\nsamples = 65\nvalue = 152011.11", fillcolor="#f8decb"] ;
11 -> 12 ;
13 [label="node #13\nPCIP50 <= 0.83\nmse = 1206674207.67\nsamples = 64\nvalue = 153456.7", fillcolor="#f8decb"] ;
12 -> 13 ;
14 [label="node #14\nPCIP50 <= 0.44\nmse = 1010541831.14\nsamples = 46\nvalue = 160089.55", fillcolor="#f8dcc8"] ;
13 -> 14 ;
15 [label="node #15\nPCIP16 <= 0.03\nmse = 1041320930.41\nsamples = 34\nvalue = 153249.02", fillcolor="#f8decb"] ;
14 -> 15 ;
16 [label="node #16\nPCIP42 <= 0.22\nmse = 895623264.0\nsamples = 33\nvalue = 155056.0", fillcolor="#f8ddca"] ;
15 -> 16 ;
17 [label="node #17\nPCIP11 <= 0.18\nmse = 818065097.33\nsamples = 31\nvalue = 152214.89", fillcolor="#f8decb"] ;
16 -> 17 ;
18 [label="node #18\nPCIP31 <= 0.49\nmse = 751751650.23\nsamples = 26\nvalue = 158058.97", fillcolor="#f8ddc9"] ;
17 -> 18 ;
19 [label="node #19\nPCIP30 <= 0.03\nmse = 634390671.75\nsamples = 25\nvalue = 159934.21", fillcolor="#f8dcc8"] ;
18 -> 19 ;
20 [label="node #20\nPCIP11 <= 0.02\nmse = 516324828.3\nsamples = 20\nvalue = 165203.23", fillcolor="#f8dbc6"] ;
19 -> 20 ;
21 [label="node #21\nPCIP31 <= 0.08\nmse = 264619928.66\nsamples = 18\nvalue = 162472.41", fillcolor="#f8dcc7"] ;
20 -> 21 ;
22 [label="node #22\nPCIP39 <= 0.37\nmse = 229145633.27\nsamples = 15\nvalue = 167104.35", fillcolor="#f7dac5"] ;
21 -> 22 ;
23 [label="node #23\nPCIP13 <= 0.2\nmse = 190094710.74\nsamples = 8\nvalue = 177272.73", fillcolor="#f7d8c2"] ;
22 -> 23 ;
24 [label="node #24\nPCIP42 <= 0.1\nmse = 184375000.0\nsamples = 5\nvalue = 174000.0", fillcolor="#f7d9c3"] ;
23 -> 24 ;
25 [label="node #25\nPCIP54 <= 0.01\nmse = 171489795.92\nsamples = 4\nvalue = 171785.71", fillcolor="#f7d9c4"] ;
24 -> 25 ;
26 [label="node #26\nPCIP30 <= 0.01\nmse = 236258400.0\nsamples = 3\nvalue = 170740.0", fillcolor="#f7d9c4"] ;
25 -> 26 ;
27 [label="node #27\nmse = 392000000.0\nsamples = 2\nvalue = 169900.0", fillcolor="#f7dac4"] ;
26 -> 27 ;
28 [label="node #28\nmse = 0.0\nsamples = 1\nvalue = 172000.0", fillcolor="#f7d9c4"] ;
26 -> 28 ;
29 [label="node #29\nmse = 0.0\nsamples = 1\nvalue = 174400.0", fillcolor="#f7d9c3"] ;
25 -> 29 ;
30 [label="node #30\nmse = 0.0\nsamples = 1\nvalue = 189500.0", fillcolor="#f6d5bd"] ;
24 -> 30 ;
31 [label="node #31\nPCIP39 <= 0.18\nmse = 100620000.0\nsamples = 3\nvalue = 186000.0", fillcolor="#f6d6be"] ;
23 -> 31 ;
32 [label="node #32\nPCIP13 <= 0.31\nmse = 20250000.0\nsamples = 2\nvalue = 192600.0", fillcolor="#f6d4bc"] ;
31 -> 32 ;
33 [label="node #33\nmse = 0.0\nsamples = 1\nvalue = 188100.0", fillcolor="#f6d5bd"] ;
32 -> 33 ;
34 [label="node #34\nmse = 0.0\nsamples = 1\nvalue = 197100.0", fillcolor="#f6d3ba"] ;
32 -> 34 ;
35 [label="node #35\nmse = 0.0\nsamples = 1\nvalue = 172800.0", fillcolor="#f7d9c3"] ;
31 -> 35 ;
36 [label="node #36\nPCIP13 <= 0.04\nmse = 83281388.89\nsamples = 7\nvalue = 157783.33", fillcolor="#f8ddc9"] ;
22 -> 36 ;
37 [label="node #37\nmse = 0.0\nsamples = 1\nvalue = 133400.0", fillcolor="#f9e3d3"] ;
36 -> 37 ;
38 [label="node #38\nPCIP39 <= 0.72\nmse = 31889090.91\nsamples = 6\nvalue = 160000.0", fillcolor="#f8dcc8"] ;
36 -> 38 ;
39 [label="node #39\nPCIP13 <= 0.09\nmse = 25642469.14\nsamples = 4\nvalue = 158544.44", fillcolor="#f8dcc9"] ;
38 -> 39 ;
40 [label="node #40\nmse = 0.0\nsamples = 1\nvalue = 144900.0", fillcolor="#f9e0ce"] ;
39 -> 40 ;
41 [label="node #41\nPCIP31 <= 0.01\nmse = 2667500.0\nsamples = 3\nvalue = 160250.0", fillcolor="#f8dcc8"] ;
39 -> 41 ;
42 [label="node #42\nPCIP13 <= 0.18\nmse = 888888.89\nsamples = 2\nvalue = 159433.33", fillcolor="#f8dcc8"] ;
41 -> 42 ;
43 [label="node #43\nmse = 0.0\nsamples = 1\nvalue = 160100.0", fillcolor="#f8dcc8"] ;
42 -> 43 ;
44 [label="node #44\nmse = 0.0\nsamples = 1\nvalue = 158100.0", fillcolor="#f8ddc9"] ;
42 -> 44 ;
45 [label="node #45\nmse = 0.0\nsamples = 1\nvalue = 162700.0", fillcolor="#f8dbc7"] ;
41 -> 45 ;
46 [label="node #46\nPCIP39 <= 0.79\nmse = 7562500.0\nsamples = 2\nvalue = 166550.0", fillcolor="#f7dbc6"] ;
38 -> 46 ;
47 [label="node #47\nmse = 0.0\nsamples = 1\nvalue = 163800.0", fillcolor="#f8dbc7"] ;
46 -> 47 ;
48 [label="node #48\nmse = 0.0\nsamples = 1\nvalue = 169300.0", fillcolor="#f7dac5"] ;
46 -> 48 ;
49 [label="node #49\nPCIP44 <= 0.05\nmse = 3094722.22\nsamples = 3\nvalue = 144716.67", fillcolor="#f9e0ce"] ;
21 -> 49 ;
50 [label="node #50\nPCIP39 <= 0.11\nmse = 16875.0\nsamples = 2\nvalue = 143475.0", fillcolor="#f9e0cf"] ;
49 -> 50 ;
51 [label="node #51\nmse = 0.0\nsamples = 1\nvalue = 143400.0", fillcolor="#f9e0cf"] ;
50 -> 51 ;
52 [label="node #52\nmse = 0.0\nsamples = 1\nvalue = 143700.0", fillcolor="#f9e0cf"] ;
50 -> 52 ;
53 [label="node #53\nmse = 0.0\nsamples = 1\nvalue = 147200.0", fillcolor="#f8dfcd"] ;
49 -> 53 ;
54 [label="node #54\nPCIP50 <= 0.22\nmse = 2490010000.0\nsamples = 2\nvalue = 204800.0", fillcolor="#f6d1b7"] ;
20 -> 54 ;
55 [label="node #55\nmse = 0.0\nsamples = 1\nvalue = 254700.0", fillcolor="#f3c5a4"] ;
54 -> 55 ;
56 [label="node #56\nmse = 0.0\nsamples = 1\nvalue = 154900.0", fillcolor="#f8ddca"] ;
54 -> 56 ;
57 [label="node #57\nPCIP24 <= 0.05\nmse = 489820000.0\nsamples = 5\nvalue = 136600.0", fillcolor="#f9e2d1"] ;
19 -> 57 ;
58 [label="node #58\nmse = 0.0\nsamples = 1\nvalue = 167600.0", fillcolor="#f7dac5"] ;
57 -> 58 ;
59 [label="node #59\nPCIP24 <= 0.15\nmse = 384595555.56\nsamples = 4\nvalue = 131433.33", fillcolor="#f9e3d3"] ;
57 -> 59 ;
60 [label="node #60\nmse = 0.0\nsamples = 1\nvalue = 97400.0", fillcolor="#fbece0"] ;
59 -> 60 ;
61 [label="node #61\nPCIP13 <= 0.11\nmse = 183530400.0\nsamples = 3\nvalue = 138240.0", fillcolor="#f9e1d1"] ;
59 -> 61 ;
62 [label="node #62\nPCIP42 <= 0.05\nmse = 65610000.0\nsamples = 2\nvalue = 153600.0", fillcolor="#f8decb"] ;
61 -> 62 ;
63 [label="node #63\nmse = 0.0\nsamples = 1\nvalue = 161700.0", fillcolor="#f8dcc8"] ;
62 -> 63 ;
64 [label="node #64\nmse = 0.0\nsamples = 1\nvalue = 145500.0", fillcolor="#f9e0ce"] ;
62 -> 64 ;
65 [label="node #65\nmse = 0.0\nsamples = 1\nvalue = 128000.0", fillcolor="#f9e4d5"] ;
61 -> 65 ;
66 [label="node #66\nmse = 0.0\nsamples = 1\nvalue = 86800.0", fillcolor="#fceee5"] ;
18 -> 66 ;
67 [label="node #67\nPCIP50 <= 0.06\nmse = 163171875.0\nsamples = 5\nvalue = 123725.0", fillcolor="#fae5d6"] ;
17 -> 67 ;
68 [label="node #68\nmse = 0.0\nsamples = 4\nvalue = 131100.0", fillcolor="#f9e3d3"] ;
67 -> 68 ;
69 [label="node #69\nmse = 0.0\nsamples = 1\nvalue = 101600.0", fillcolor="#fbebdf"] ;
67 -> 69 ;
70 [label="node #70\nPCIP24 <= 0.11\nmse = 3042222.22\nsamples = 2\nvalue = 199566.67", fillcolor="#f6d2b9"] ;
16 -> 70 ;
71 [label="node #71\nmse = 0.0\nsamples = 1\nvalue = 200800.0", fillcolor="#f6d2b8"] ;
70 -> 71 ;
72 [label="node #72\nmse = 0.0\nsamples = 1\nvalue = 197100.0", fillcolor="#f6d3ba"] ;
70 -> 72 ;
73 [label="node #73\nmse = 0.0\nsamples = 1\nvalue = 62900.0", fillcolor="#fdf4ee"] ;
15 -> 73 ;
74 [label="node #74\nPCIP11 <= 0.34\nmse = 287858085.94\nsamples = 12\nvalue = 181893.75", fillcolor="#f7d7c0"] ;
14 -> 74 ;
75 [label="node #75\nPCIP50 <= 0.67\nmse = 243315969.39\nsamples = 11\nvalue = 178621.43", fillcolor="#f7d8c1"] ;
74 -> 75 ;
76 [label="node #76\nPCIP50 <= 0.46\nmse = 123531600.0\nsamples = 8\nvalue = 172580.0", fillcolor="#f7d9c3"] ;
75 -> 76 ;
77 [label="node #77\nPCIP14 <= 0.0\nmse = 31468888.89\nsamples = 2\nvalue = 186166.67", fillcolor="#f6d6be"] ;
76 -> 77 ;
78 [label="node #78\nmse = 0.0\nsamples = 1\nvalue = 182200.0", fillcolor="#f7d7c0"] ;
77 -> 78 ;
79 [label="node #79\nmse = 0.0\nsamples = 1\nvalue = 194100.0", fillcolor="#f6d4bb"] ;
77 -> 79 ;
80 [label="node #80\nPCIP50 <= 0.51\nmse = 49968163.27\nsamples = 6\nvalue = 166757.14", fillcolor="#f7dac6"] ;
76 -> 80 ;
81 [label="node #81\nmse = 0.0\nsamples = 2\nvalue = 158700.0", fillcolor="#f8dcc9"] ;
80 -> 81 ;
82 [label="node #82\nPCIP11 <= 0.21\nmse = 33601600.0\nsamples = 4\nvalue = 169980.0", fillcolor="#f7dac4"] ;
80 -> 82 ;
83 [label="node #83\nPCIP24 <= 0.0\nmse = 7680000.0\nsamples = 3\nvalue = 172600.0", fillcolor="#f7d9c3"] ;
82 -> 83 ;
84 [label="node #84\nmse = 0.0\nsamples = 2\nvalue = 174200.0", fillcolor="#f7d9c3"] ;
83 -> 84 ;
85 [label="node #85\nmse = 0.0\nsamples = 1\nvalue = 167800.0", fillcolor="#f7dac5"] ;
83 -> 85 ;
86 [label="node #86\nmse = 0.0\nsamples = 1\nvalue = 159500.0", fillcolor="#f8dcc8"] ;
82 -> 86 ;
87 [label="node #87\nPCIP13 <= 0.0\nmse = 223411875.0\nsamples = 3\nvalue = 193725.0", fillcolor="#f6d4bb"] ;
75 -> 87 ;
88 [label="node #88\nPCIP50 <= 0.76\nmse = 221902222.22\nsamples = 2\nvalue = 189366.67", fillcolor="#f6d5bd"] ;
87 -> 88 ;
89 [label="node #89\nmse = 0.0\nsamples = 1\nvalue = 199900.0", fillcolor="#f6d2b9"] ;
88 -> 89 ;
90 [label="node #90\nmse = 0.0\nsamples = 1\nvalue = 168300.0", fillcolor="#f7dac5"] ;
88 -> 90 ;
91 [label="node #91\nmse = 0.0\nsamples = 1\nvalue = 206800.0", fillcolor="#f5d1b6"] ;
87 -> 91 ;
92 [label="node #92\nmse = 0.0\nsamples = 1\nvalue = 204800.0", fillcolor="#f6d1b7"] ;
74 -> 92 ;
93 [label="node #93\nPCIP13 <= 0.05\nmse = 1327012455.56\nsamples = 18\nvalue = 138643.33", fillcolor="#f9e1d0"] ;
13 -> 93 ;
94 [label="node #94\nPCIP04 <= 0.0\nmse = 892741344.31\nsamples = 17\nvalue = 146270.37", fillcolor="#f9e0ce"] ;
93 -> 94 ;
95 [label="node #95\nPCIP30 <= 0.02\nmse = 906983786.98\nsamples = 16\nvalue = 145407.69", fillcolor="#f9e0ce"] ;
94 -> 95 ;
96 [label="node #96\nPCIP50 <= 0.98\nmse = 929945536.0\nsamples = 15\nvalue = 144692.0", fillcolor="#f9e0ce"] ;
95 -> 96 ;
97 [label="node #97\nPCIP50 <= 0.9\nmse = 4202500.0\nsamples = 2\nvalue = 138650.0", fillcolor="#f9e1d0"] ;
96 -> 97 ;
98 [label="node #98\nmse = 0.0\nsamples = 1\nvalue = 140700.0", fillcolor="#f9e1d0"] ;
97 -> 98 ;
99 [label="node #99\nmse = 0.0\nsamples = 1\nvalue = 136600.0", fillcolor="#f9e2d1"] ;
97 -> 99 ;
100 [label="node #100\nmse = 1006994480.15\nsamples = 13\nvalue = 145217.39", fillcolor="#f9e0ce"] ;
96 -> 100 ;
101 [label="node #101\nmse = 0.0\nsamples = 1\nvalue = 163300.0", fillcolor="#f8dbc7"] ;
95 -> 101 ;
102 [label="node #102\nmse = 0.0\nsamples = 1\nvalue = 168700.0", fillcolor="#f7dac5"] ;
94 -> 102 ;
103 [label="node #103\nmse = 0.0\nsamples = 1\nvalue = 70000.0", fillcolor="#fcf2eb"] ;
93 -> 103 ;
104 [label="node #104\nmse = 0.0\nsamples = 1\nvalue = 81900.0", fillcolor="#fcefe6"] ;
12 -> 104 ;
105 [label="node #105\nPCIP13 <= 0.01\nmse = 1526357500.0\nsamples = 6\nvalue = 191250.0", fillcolor="#f6d4bc"] ;
11 -> 105 ;
106 [label="node #106\nPCIP31 <= 0.1\nmse = 233421875.0\nsamples = 3\nvalue = 226725.0", fillcolor="#f4ccae"] ;
105 -> 106 ;
107 [label="node #107\nPCIP26 <= 0.12\nmse = 39062500.0\nsamples = 2\nvalue = 241350.0", fillcolor="#f4c8a9"] ;
106 -> 107 ;
108 [label="node #108\nmse = 0.0\nsamples = 1\nvalue = 247600.0", fillcolor="#f3c7a6"] ;
107 -> 108 ;
109 [label="node #109\nmse = 0.0\nsamples = 1\nvalue = 235100.0", fillcolor="#f4caab"] ;
107 -> 109 ;
110 [label="node #110\nmse = 0.0\nsamples = 1\nvalue = 212100.0", fillcolor="#f5cfb4"] ;
106 -> 110 ;
111 [label="node #111\nPCIP26 <= 0.08\nmse = 302341875.0\nsamples = 3\nvalue = 155775.0", fillcolor="#f8ddca"] ;
105 -> 111 ;
112 [label="node #112\nmse = 0.0\nsamples = 1\nvalue = 126500.0", fillcolor="#fae4d5"] ;
111 -> 112 ;
113 [label="node #113\nPCIP40 <= 0.01\nmse = 22222222.22\nsamples = 2\nvalue = 165533.33", fillcolor="#f8dbc6"] ;
111 -> 113 ;
114 [label="node #114\nmse = 0.0\nsamples = 1\nvalue = 162200.0", fillcolor="#f8dcc7"] ;
113 -> 114 ;
115 [label="node #115\nmse = 0.0\nsamples = 1\nvalue = 172200.0", fillcolor="#f7d9c3"] ;
113 -> 115 ;
116 [label="node #116\nPCIP50 <= 0.62\nmse = 1727195833.33\nsamples = 9\nvalue = 198950.0", fillcolor="#f6d3b9"] ;
10 -> 116 ;
117 [label="node #117\nPCIP50 <= 0.05\nmse = 1174458055.56\nsamples = 4\nvalue = 169116.67", fillcolor="#f7dac5"] ;
116 -> 117 ;
118 [label="node #118\nmse = 0.0\nsamples = 1\nvalue = 216900.0", fillcolor="#f5ceb2"] ;
117 -> 118 ;
119 [label="node #119\nPCIP50 <= 0.54\nmse = 49251875.0\nsamples = 3\nvalue = 145225.0", fillcolor="#f9e0ce"] ;
117 -> 119 ;
120 [label="node #120\nPCIP04 <= 0.43\nmse = 17222500.0\nsamples = 2\nvalue = 138850.0", fillcolor="#f9e1d0"] ;
119 -> 120 ;
121 [label="node #121\nmse = 0.0\nsamples = 1\nvalue = 143000.0", fillcolor="#f9e0cf"] ;
120 -> 121 ;
122 [label="node #122\nmse = 0.0\nsamples = 1\nvalue = 134700.0", fillcolor="#f9e2d2"] ;
120 -> 122 ;
123 [label="node #123\nmse = 0.0\nsamples = 1\nvalue = 151600.0", fillcolor="#f8decb"] ;
119 -> 123 ;
124 [label="node #124\nPCIP11 <= 0.01\nmse = 499878055.56\nsamples = 5\nvalue = 228783.33", fillcolor="#f4cbae"] ;
116 -> 124 ;
125 [label="node #125\nPCIP30 <= 0.01\nmse = 117805600.0\nsamples = 4\nvalue = 219820.0", fillcolor="#f5cdb1"] ;
124 -> 125 ;
126 [label="node #126\nPCIP50 <= 0.85\nmse = 14580000.0\nsamples = 2\nvalue = 228200.0", fillcolor="#f4cbae"] ;
125 -> 126 ;
127 [label="node #127\nmse = 0.0\nsamples = 1\nvalue = 233600.0", fillcolor="#f4caac"] ;
126 -> 127 ;
128 [label="node #128\nmse = 0.0\nsamples = 1\nvalue = 225500.0", fillcolor="#f4ccaf"] ;
126 -> 128 ;
129 [label="node #129\nPCIP30 <= 0.04\nmse = 9302500.0\nsamples = 2\nvalue = 207250.0", fillcolor="#f5d1b6"] ;
125 -> 129 ;
130 [label="node #130\nmse = 0.0\nsamples = 1\nvalue = 210300.0", fillcolor="#f5d0b5"] ;
129 -> 130 ;
131 [label="node #131\nmse = 0.0\nsamples = 1\nvalue = 204200.0", fillcolor="#f6d1b7"] ;
129 -> 131 ;
132 [label="node #132\nmse = 0.0\nsamples = 1\nvalue = 273600.0", fillcolor="#f2c09c"] ;
124 -> 132 ;
133 [label="node #133\nPCIP13 <= 0.05\nmse = 2381011634.35\nsamples = 16\nvalue = 197668.42", fillcolor="#f6d3ba"] ;
9 -> 133 ;
134 [label="node #134\nPCIP31 <= 0.17\nmse = 483659669.42\nsamples = 10\nvalue = 233218.18", fillcolor="#f4caac"] ;
133 -> 134 ;
135 [label="node #135\nPCIP39 <= 0.11\nmse = 147580100.0\nsamples = 9\nvalue = 239130.0", fillcolor="#f4c9aa"] ;
134 -> 135 ;
136 [label="node #136\nPCIP54 <= 0.01\nmse = 19324444.44\nsamples = 8\nvalue = 242933.33", fillcolor="#f4c8a8"] ;
135 -> 136 ;
137 [label="node #137\nPCIP30 <= 0.02\nmse = 1093.75\nsamples = 7\nvalue = 244487.5", fillcolor="#f4c7a8"] ;
136 -> 137 ;
138 [label="node #138\nmse = 0.0\nsamples = 6\nvalue = 244500.0", fillcolor="#f4c7a8"] ;
137 -> 138 ;
139 [label="node #139\nmse = 0.0\nsamples = 1\nvalue = 244400.0", fillcolor="#f4c7a8"] ;
137 -> 139 ;
140 [label="node #140\nmse = 0.0\nsamples = 1\nvalue = 230500.0", fillcolor="#f4cbad"] ;
136 -> 140 ;
141 [label="node #141\nmse = 0.0\nsamples = 1\nvalue = 204900.0", fillcolor="#f6d1b7"] ;
135 -> 141 ;
142 [label="node #142\nmse = 0.0\nsamples = 1\nvalue = 174100.0", fillcolor="#f7d9c3"] ;
134 -> 142 ;
143 [label="node #143\nPCIP43 <= 0.2\nmse = 862821093.75\nsamples = 6\nvalue = 148787.5", fillcolor="#f8dfcd"] ;
133 -> 143 ;
144 [label="node #144\nPCIP39 <= 0.01\nmse = 101561600.0\nsamples = 3\nvalue = 169920.0", fillcolor="#f7dac4"] ;
143 -> 144 ;
145 [label="node #145\nmse = 0.0\nsamples = 1\nvalue = 158600.0", fillcolor="#f8dcc9"] ;
144 -> 145 ;
146 [label="node #146\nPCIP39 <= 0.03\nmse = 26888888.89\nsamples = 2\nvalue = 177466.67", fillcolor="#f7d8c1"] ;
144 -> 146 ;
147 [label="node #147\nmse = 0.0\nsamples = 1\nvalue = 173800.0", fillcolor="#f7d9c3"] ;
146 -> 147 ;
148 [label="node #148\nmse = 0.0\nsamples = 1\nvalue = 184800.0", fillcolor="#f7d6bf"] ;
146 -> 148 ;
149 [label="node #149\nPCIP13 <= 0.1\nmse = 146775555.56\nsamples = 3\nvalue = 113566.67", fillcolor="#fae8da"] ;
143 -> 149 ;
150 [label="node #150\nmse = 0.0\nsamples = 1\nvalue = 130700.0", fillcolor="#f9e3d4"] ;
149 -> 150 ;
151 [label="node #151\nmse = 0.0\nsamples = 2\nvalue = 105000.0", fillcolor="#fbeadd"] ;
149 -> 151 ;
152 [label="node #152\nmse = 0.0\nsamples = 1\nvalue = 67100.0", fillcolor="#fdf3ec"] ;
8 -> 152 ;
153 [label="node #153\nmse = 0.0\nsamples = 1\nvalue = 18400.0", fillcolor="#ffffff"] ;
7 -> 153 ;
154 [label="node #154\nPCIP51 <= 0.0\nmse = 2488283152.66\nsamples = 105\nvalue = 183911.8", fillcolor="#f7d6bf"] ;
6 -> 154 ;
155 [label="node #155\nmse = 0.0\nsamples = 1\nvalue = 381700.0", fillcolor="#eda672"] ;
154 -> 155 ;
156 [label="node #156\nPCIP51 <= 0.69\nmse = 1778637396.65\nsamples = 104\nvalue = 180156.33", fillcolor="#f7d7c0"] ;
154 -> 156 ;
157 [label="node #157\nPCIP40 <= 0.05\nmse = 1413642607.52\nsamples = 101\nvalue = 178480.52", fillcolor="#f7d8c1"] ;
156 -> 157 ;
158 [label="node #158\nPCIP43 <= 0.16\nmse = 1346135822.22\nsamples = 99\nvalue = 179933.33", fillcolor="#f7d7c1"] ;
157 -> 158 ;
159 [label="node #159\nPCIP44 <= 0.15\nmse = 1343157197.23\nsamples = 91\nvalue = 177352.94", fillcolor="#f7d8c2"] ;
158 -> 159 ;
160 [label="node #160\nPCIP30 <= 0.53\nmse = 1268548755.98\nsamples = 87\nvalue = 180623.02", fillcolor="#f7d7c0"] ;
159 -> 160 ;
161 [label="node #161\nPCIP13 <= 0.03\nmse = 1221085974.9\nsamples = 86\nvalue = 179584.68", fillcolor="#f7d7c1"] ;
160 -> 161 ;
162 [label="node #162\nPCIP51 <= 0.02\nmse = 1270786135.55\nsamples = 41\nvalue = 170572.41", fillcolor="#f7dac4"] ;
161 -> 162 ;
163 [label="node #163\nPCIP42 <= 0.1\nmse = 1365578055.56\nsamples = 4\nvalue = 211183.33", fillcolor="#f5d0b4"] ;
162 -> 163 ;
164 [label="node #164\nPCIP50 <= 0.28\nmse = 98891875.0\nsamples = 3\nvalue = 236675.0", fillcolor="#f4c9ab"] ;
163 -> 164 ;
165 [label="node #165\nPCIP31 <= 0.01\nmse = 2275555.56\nsamples = 2\nvalue = 242366.67", fillcolor="#f4c8a8"] ;
164 -> 165 ;
166 [label="node #166\nmse = 0.0\nsamples = 1\nvalue = 244500.0", fillcolor="#f4c7a8"] ;
165 -> 166 ;
167 [label="node #167\nmse = 0.0\nsamples = 1\nvalue = 241300.0", fillcolor="#f4c8a9"] ;
165 -> 167 ;
168 [label="node #168\nmse = 0.0\nsamples = 1\nvalue = 219600.0", fillcolor="#f5cdb1"] ;
164 -> 168 ;
169 [label="node #169\nmse = 0.0\nsamples = 1\nvalue = 160200.0", fillcolor="#f8dcc8"] ;
163 -> 169 ;
170 [label="node #170\nPCIP44 <= 0.05\nmse = 1047593472.63\nsamples = 37\nvalue = 165886.54", fillcolor="#f8dbc6"] ;
162 -> 170 ;
171 [label="node #171\nPCIP14 <= 0.0\nmse = 901365714.29\nsamples = 34\nvalue = 162571.43", fillcolor="#f8dcc7"] ;
170 -> 171 ;
172 [label="node #172\nPCIP51 <= 0.27\nmse = 819099787.33\nsamples = 33\nvalue = 161135.42", fillcolor="#f8dcc8"] ;
171 -> 172 ;
173 [label="node #173\nPCIP15 <= 0.01\nmse = 894622949.83\nsamples = 23\nvalue = 155738.24", fillcolor="#f8ddca"] ;
172 -> 173 ;
174 [label="node #174\nPCIP14 <= 0.0\nmse = 926160499.41\nsamples = 20\nvalue = 159986.21", fillcolor="#f8dcc8"] ;
173 -> 174 ;
175 [label="node #175\nPCIP44 <= 0.0\nmse = 809079528.06\nsamples = 19\nvalue = 157710.71", fillcolor="#f8ddc9"] ;
174 -> 175 ;
176 [label="node #176\nPCIP26 <= 0.34\nmse = 827265784.5\nsamples = 15\nvalue = 163017.39", fillcolor="#f8dbc7"] ;
175 -> 176 ;
177 [label="node #177\nPCIP51 <= 0.11\nmse = 741351818.18\nsamples = 14\nvalue = 160700.0", fillcolor="#f8dcc8"] ;
176 -> 177 ;
178 [label="node #178\nPCIP51 <= 0.09\nmse = 860507822.22\nsamples = 9\nvalue = 167913.33", fillcolor="#f7dac5"] ;
177 -> 178 ;
179 [label="node #179\nPCIP43 <= 0.06\nmse = 221691597.63\nsamples = 7\nvalue = 159661.54", fillcolor="#f8dcc8"] ;
178 -> 179 ;
180 [label="node #180\nPCIP13 <= 0.01\nmse = 58791875.0\nsamples = 5\nvalue = 169575.0", fillcolor="#f7dac5"] ;
179 -> 180 ;
181 [label="node #181\nPCIP30 <= 0.08\nmse = 27708888.89\nsamples = 3\nvalue = 178366.67", fillcolor="#f7d8c1"] ;
180 -> 181 ;
182 [label="node #182\nPCIP51 <= 0.04\nmse = 1960000.0\nsamples = 2\nvalue = 182000.0", fillcolor="#f7d7c0"] ;
181 -> 182 ;
183 [label="node #183\nmse = 0.0\nsamples = 1\nvalue = 183400.0", fillcolor="#f7d6bf"] ;
182 -> 183 ;
184 [label="node #184\nmse = 0.0\nsamples = 1\nvalue = 180600.0", fillcolor="#f7d7c0"] ;
182 -> 184 ;
185 [label="node #185\nmse = 0.0\nsamples = 1\nvalue = 171100.0", fillcolor="#f7d9c4"] ;
181 -> 185 ;
186 [label="node #186\nPCIP31 <= 0.01\nmse = 3240000.0\nsamples = 2\nvalue = 164300.0", fillcolor="#f8dbc7"] ;
180 -> 186 ;
187 [label="node #187\nmse = 0.0\nsamples = 1\nvalue = 160700.0", fillcolor="#f8dcc8"] ;
186 -> 187 ;
188 [label="node #188\nmse = 0.0\nsamples = 1\nvalue = 165200.0", fillcolor="#f8dbc6"] ;
186 -> 188 ;
189 [label="node #189\nPCIP13 <= 0.01\nmse = 73500000.0\nsamples = 2\nvalue = 143800.0", fillcolor="#f9e0ce"] ;
179 -> 189 ;
190 [label="node #190\nmse = 0.0\nsamples = 1\nvalue = 133300.0", fillcolor="#f9e3d3"] ;
189 -> 190 ;
191 [label="node #191\nmse = 0.0\nsamples = 1\nvalue = 150800.0", fillcolor="#f8decc"] ;
189 -> 191 ;
192 [label="node #192\nPCIP51 <= 0.1\nmse = 1693322500.0\nsamples = 2\nvalue = 221550.0", fillcolor="#f5cdb0"] ;
178 -> 192 ;
193 [label="node #193\nmse = 0.0\nsamples = 1\nvalue = 262700.0", fillcolor="#f3c3a0"] ;
192 -> 193 ;
194 [label="node #194\nmse = 0.0\nsamples = 1\nvalue = 180400.0", fillcolor="#f7d7c0"] ;
192 -> 194 ;
195 [label="node #195\nPCIP11 <= 0.09\nmse = 135596734.69\nsamples = 5\nvalue = 145242.86", fillcolor="#f9e0ce"] ;
177 -> 195 ;
196 [label="node #196\nPCIP51 <= 0.21\nmse = 80188000.0\nsamples = 3\nvalue = 139700.0", fillcolor="#f9e1d0"] ;
195 -> 196 ;
197 [label="node #197\nPCIP01 <= 0.03\nmse = 9922500.0\nsamples = 2\nvalue = 135450.0", fillcolor="#f9e2d2"] ;
196 -> 197 ;
198 [label="node #198\nmse = 0.0\nsamples = 1\nvalue = 132300.0", fillcolor="#f9e3d3"] ;
197 -> 198 ;
199 [label="node #199\nmse = 0.0\nsamples = 1\nvalue = 138600.0", fillcolor="#f9e1d0"] ;
197 -> 199 ;
200 [label="node #200\nmse = 0.0\nsamples = 1\nvalue = 156700.0", fillcolor="#f8ddc9"] ;
196 -> 200 ;
201 [label="node #201\nPCIP24 <= 0.02\nmse = 5290000.0\nsamples = 2\nvalue = 159100.0", fillcolor="#f8dcc9"] ;
195 -> 201 ;
202 [label="node #202\nmse = 0.0\nsamples = 1\nvalue = 156800.0", fillcolor="#f8ddc9"] ;
201 -> 202 ;
203 [label="node #203\nmse = 0.0\nsamples = 1\nvalue = 161400.0", fillcolor="#f8dcc8"] ;
201 -> 203 ;
204 [label="node #204\nmse = 0.0\nsamples = 1\nvalue = 214000.0", fillcolor="#f5cfb3"] ;
176 -> 204 ;
205 [label="node #205\nmse = 0.0\nsamples = 4\nvalue = 133300.0", fillcolor="#f9e3d3"] ;
175 -> 205 ;
206 [label="node #206\nmse = 0.0\nsamples = 1\nvalue = 223700.0", fillcolor="#f5ccb0"] ;
174 -> 206 ;
207 [label="node #207\nmse = 0.0\nsamples = 3\nvalue = 131100.0", fillcolor="#f9e3d3"] ;
173 -> 207 ;
208 [label="node #208\nPCIP51 <= 0.64\nmse = 393138163.27\nsamples = 10\nvalue = 174242.86", fillcolor="#f7d9c3"] ;
172 -> 208 ;
209 [label="node #209\nPCIP43 <= 0.02\nmse = 119733846.15\nsamples = 9\nvalue = 178900.0", fillcolor="#f7d7c1"] ;
208 -> 209 ;
210 [label="node #210\nPCIP43 <= 0.0\nmse = 24035555.56\nsamples = 3\nvalue = 160266.67", fillcolor="#f8dcc8"] ;
209 -> 210 ;
211 [label="node #211\nmse = 0.0\nsamples = 2\nvalue = 156800.0", fillcolor="#f8ddc9"] ;
210 -> 211 ;
212 [label="node #212\nmse = 0.0\nsamples = 1\nvalue = 167200.0", fillcolor="#f7dac5"] ;
210 -> 212 ;
213 [label="node #213\nPCIP30 <= 0.06\nmse = 13034900.0\nsamples = 6\nvalue = 184490.0", fillcolor="#f7d6bf"] ;
209 -> 213 ;
214 [label="node #214\nPCIP11 <= 0.11\nmse = 1360246.91\nsamples = 5\nvalue = 183344.44", fillcolor="#f7d6bf"] ;
213 -> 214 ;
215 [label="node #215\nPCIP11 <= 0.06\nmse = 301875.0\nsamples = 4\nvalue = 182975.0", fillcolor="#f7d6bf"] ;
214 -> 215 ;
216 [label="node #216\nPCIP24 <= 0.01\nmse = 2222.22\nsamples = 2\nvalue = 182266.67", fillcolor="#f7d7c0"] ;
215 -> 216 ;
217 [label="node #217\nmse = 0.0\nsamples = 1\nvalue = 182200.0", fillcolor="#f7d7c0"] ;
216 -> 217 ;
218 [label="node #218\nmse = 0.0\nsamples = 1\nvalue = 182300.0", fillcolor="#f7d7c0"] ;
216 -> 218 ;
219 [label="node #219\nmse = 0.0\nsamples = 2\nvalue = 183400.0", fillcolor="#f7d6bf"] ;
215 -> 219 ;
220 [label="node #220\nmse = 0.0\nsamples = 1\nvalue = 186300.0", fillcolor="#f6d6be"] ;
214 -> 220 ;
221 [label="node #221\nmse = 0.0\nsamples = 1\nvalue = 194800.0", fillcolor="#f6d4bb"] ;
213 -> 221 ;
222 [label="node #222\nmse = 0.0\nsamples = 1\nvalue = 113700.0", fillcolor="#fae8da"] ;
208 -> 222 ;
223 [label="node #223\nmse = 0.0\nsamples = 1\nvalue = 231500.0", fillcolor="#f4cbad"] ;
171 -> 223 ;
224 [label="node #224\nPCIP13 <= 0.0\nmse = 324602222.22\nsamples = 3\nvalue = 220033.33", fillcolor="#f5cdb1"] ;
170 -> 224 ;
225 [label="node #225\nPCIP54 <= 0.02\nmse = 41602500.0\nsamples = 2\nvalue = 207850.0", fillcolor="#f5d0b6"] ;
224 -> 225 ;
226 [label="node #226\nmse = 0.0\nsamples = 1\nvalue = 214300.0", fillcolor="#f5cfb3"] ;
225 -> 226 ;
227 [label="node #227\nmse = 0.0\nsamples = 1\nvalue = 201400.0", fillcolor="#f6d2b8"] ;
225 -> 227 ;
228 [label="node #228\nmse = 0.0\nsamples = 1\nvalue = 244400.0", fillcolor="#f4c7a8"] ;
224 -> 228 ;
229 [label="node #229\nPCIP11 <= 0.06\nmse = 1043309827.82\nsamples = 45\nvalue = 187504.55", fillcolor="#f6d5be"] ;
161 -> 229 ;
230 [label="node #230\nPCIP13 <= 0.04\nmse = 869491283.47\nsamples = 39\nvalue = 181831.58", fillcolor="#f7d7c0"] ;
229 -> 230 ;
231 [label="node #231\nPCIP31 <= 0.01\nmse = 296857500.0\nsamples = 6\nvalue = 218900.0", fillcolor="#f5ceb1"] ;
230 -> 231 ;
232 [label="node #232\nPCIP51 <= 0.32\nmse = 642222.22\nsamples = 2\nvalue = 238033.33", fillcolor="#f4c9aa"] ;
231 -> 232 ;
233 [label="node #233\nmse = 0.0\nsamples = 1\nvalue = 236900.0", fillcolor="#f4c9aa"] ;
232 -> 233 ;
234 [label="node #234\nmse = 0.0\nsamples = 1\nvalue = 238600.0", fillcolor="#f4c9aa"] ;
232 -> 234 ;
235 [label="node #235\nPCIP11 <= 0.02\nmse = 123145600.0\nsamples = 4\nvalue = 207420.0", fillcolor="#f5d0b6"] ;
231 -> 235 ;
236 [label="node #236\nPCIP50 <= 0.12\nmse = 9210000.0\nsamples = 3\nvalue = 212800.0", fillcolor="#f5cfb4"] ;
235 -> 236 ;
237 [label="node #237\nPCIP51 <= 0.28\nmse = 720000.0\nsamples = 2\nvalue = 214500.0", fillcolor="#f5cfb3"] ;
236 -> 237 ;
238 [label="node #238\nmse = 0.0\nsamples = 1\nvalue = 215100.0", fillcolor="#f5cfb3"] ;
237 -> 238 ;
239 [label="node #239\nmse = 0.0\nsamples = 1\nvalue = 213300.0", fillcolor="#f5cfb4"] ;
237 -> 239 ;
240 [label="node #240\nmse = 0.0\nsamples = 1\nvalue = 207700.0", fillcolor="#f5d0b6"] ;
236 -> 240 ;
241 [label="node #241\nmse = 0.0\nsamples = 1\nvalue = 185900.0", fillcolor="#f6d6be"] ;
235 -> 241 ;
242 [label="node #242\nPCIP11 <= 0.05\nmse = 702018359.02\nsamples = 33\nvalue = 175779.59", fillcolor="#f7d8c2"] ;
230 -> 242 ;
243 [label="node #243\nPCIP39 <= 0.06\nmse = 615156106.77\nsamples = 32\nvalue = 177218.75", fillcolor="#f7d8c2"] ;
242 -> 243 ;
244 [label="node #244\nPCIP54 <= 0.03\nmse = 558714375.46\nsamples = 24\nvalue = 182545.95", fillcolor="#f7d7bf"] ;
243 -> 244 ;
245 [label="node #245\nPCIP54 <= 0.01\nmse = 379703487.65\nsamples = 23\nvalue = 184838.89", fillcolor="#f7d6bf"] ;
244 -> 245 ;
246 [label="node #246\nPCIP27 <= 0.03\nmse = 204803315.97\nsamples = 14\nvalue = 177354.17", fillcolor="#f7d8c2"] ;
245 -> 246 ;
247 [label="node #247\nPCIP26 <= 0.01\nmse = 114410351.24\nsamples = 13\nvalue = 180368.18", fillcolor="#f7d7c0"] ;
246 -> 247 ;
248 [label="node #248\nPCIP13 <= 0.09\nmse = 19507500.0\nsamples = 2\nvalue = 167450.0", fillcolor="#f7dac5"] ;
247 -> 248 ;
249 [label="node #249\nmse = 0.0\nsamples = 1\nvalue = 170000.0", fillcolor="#f7dac4"] ;
248 -> 249 ;
250 [label="node #250\nmse = 0.0\nsamples = 1\nvalue = 159800.0", fillcolor="#f8dcc8"] ;
248 -> 250 ;
251 [label="node #251\nPCIP50 <= 0.03\nmse = 90174598.77\nsamples = 11\nvalue = 183238.89", fillcolor="#f7d6bf"] ;
247 -> 251 ;
252 [label="node #252\nPCIP26 <= 0.03\nmse = 44136213.02\nsamples = 7\nvalue = 187961.54", fillcolor="#f6d5bd"] ;
251 -> 252 ;
253 [label="node #253\nPCIP39 <= 0.03\nmse = 9600.0\nsamples = 2\nvalue = 181220.0", fillcolor="#f7d7c0"] ;
252 -> 253 ;
254 [label="node #254\nmse = 0.0\nsamples = 1\nvalue = 181100.0", fillcolor="#f7d7c0"] ;
253 -> 254 ;
255 [label="node #255\nmse = 0.0\nsamples = 1\nvalue = 181300.0", fillcolor="#f7d7c0"] ;
253 -> 255 ;
256 [label="node #256\nPCIP16 <= 0.03\nmse = 25556875.0\nsamples = 5\nvalue = 192175.0", fillcolor="#f6d4bc"] ;
252 -> 256 ;
257 [label="node #257\nPCIP51 <= 0.17\nmse = 5205306.12\nsamples = 4\nvalue = 190442.86", fillcolor="#f6d5bc"] ;
256 -> 257 ;
258 [label="node #258\nPCIP27 <= 0.01\nmse = 649600.0\nsamples = 3\nvalue = 191820.0", fillcolor="#f6d4bc"] ;
257 -> 258 ;
259 [label="node #259\nmse = 0.0\nsamples = 1\nvalue = 190900.0", fillcolor="#f6d5bc"] ;
258 -> 259 ;
260 [label="node #260\nPCIP50 <= 0.03\nmse = 142222.22\nsamples = 2\nvalue = 192433.33", fillcolor="#f6d4bc"] ;
258 -> 260 ;
261 [label="node #261\nmse = 0.0\nsamples = 1\nvalue = 192700.0", fillcolor="#f6d4bc"] ;
260 -> 261 ;
262 [label="node #262\nmse = 0.0\nsamples = 1\nvalue = 191900.0", fillcolor="#f6d4bc"] ;
260 -> 262 ;
263 [label="node #263\nmse = 0.0\nsamples = 1\nvalue = 187000.0", fillcolor="#f6d5be"] ;
257 -> 263 ;
264 [label="node #264\nmse = 0.0\nsamples = 1\nvalue = 204300.0", fillcolor="#f6d1b7"] ;
256 -> 264 ;
265 [label="node #265\nPCIP26 <= 0.04\nmse = 1114400.0\nsamples = 4\nvalue = 170960.0", fillcolor="#f7d9c4"] ;
251 -> 265 ;
266 [label="node #266\nPCIP44 <= 0.02\nmse = 2222.22\nsamples = 2\nvalue = 170166.67", fillcolor="#f7dac4"] ;
265 -> 266 ;
267 [label="node #267\nmse = 0.0\nsamples = 1\nvalue = 170200.0", fillcolor="#f7dac4"] ;
266 -> 267 ;
268 [label="node #268\nmse = 0.0\nsamples = 1\nvalue = 170100.0", fillcolor="#f7dac4"] ;
266 -> 268 ;
269 [label="node #269\nPCIP44 <= 0.02\nmse = 422500.0\nsamples = 2\nvalue = 172150.0", fillcolor="#f7d9c4"] ;
265 -> 269 ;
270 [label="node #270\nmse = 0.0\nsamples = 1\nvalue = 172800.0", fillcolor="#f7d9c3"] ;
269 -> 270 ;
271 [label="node #271\nmse = 0.0\nsamples = 1\nvalue = 171500.0", fillcolor="#f7d9c4"] ;
269 -> 271 ;
272 [label="node #272\nmse = 0.0\nsamples = 1\nvalue = 144200.0", fillcolor="#f9e0ce"] ;
246 -> 272 ;
273 [label="node #273\nPCIP43 <= 0.05\nmse = 393377430.56\nsamples = 9\nvalue = 199808.33", fillcolor="#f6d2b9"] ;
245 -> 273 ;
274 [label="node #274\nPCIP11 <= 0.02\nmse = 27208163.27\nsamples = 5\nvalue = 213942.86", fillcolor="#f5cfb3"] ;
273 -> 274 ;
275 [label="node #275\nPCIP43 <= 0.01\nmse = 3920000.0\nsamples = 3\nvalue = 219500.0", fillcolor="#f5cdb1"] ;
274 -> 275 ;
276 [label="node #276\nmse = 0.0\nsamples = 1\nvalue = 216700.0", fillcolor="#f5ceb2"] ;
275 -> 276 ;
277 [label="node #277\nmse = 0.0\nsamples = 2\nvalue = 220900.0", fillcolor="#f5cdb1"] ;
275 -> 277 ;
278 [label="node #278\nPCIP11 <= 0.02\nmse = 4141875.0\nsamples = 2\nvalue = 209775.0", fillcolor="#f5d0b5"] ;
274 -> 278 ;
279 [label="node #279\nmse = 0.0\nsamples = 1\nvalue = 208600.0", fillcolor="#f5d0b5"] ;
278 -> 279 ;
280 [label="node #280\nmse = 0.0\nsamples = 1\nvalue = 213300.0", fillcolor="#f5cfb4"] ;
278 -> 280 ;
281 [label="node #281\nPCIP11 <= 0.02\nmse = 234737600.0\nsamples = 4\nvalue = 180020.0", fillcolor="#f7d7c0"] ;
273 -> 281 ;
282 [label="node #282\nPCIP27 <= 0.03\nmse = 57002500.0\nsamples = 2\nvalue = 163650.0", fillcolor="#f8dbc7"] ;
281 -> 282 ;
283 [label="node #283\nmse = 0.0\nsamples = 1\nvalue = 171200.0", fillcolor="#f7d9c4"] ;
282 -> 283 ;
284 [label="node #284\nmse = 0.0\nsamples = 1\nvalue = 156100.0", fillcolor="#f8ddca"] ;
282 -> 284 ;
285 [label="node #285\nPCIP40 <= 0.01\nmse = 55475555.56\nsamples = 2\nvalue = 190933.33", fillcolor="#f6d5bc"] ;
281 -> 285 ;
286 [label="node #286\nmse = 0.0\nsamples = 1\nvalue = 196200.0", fillcolor="#f6d3ba"] ;
285 -> 286 ;
287 [label="node #287\nmse = 0.0\nsamples = 1\nvalue = 180400.0", fillcolor="#f7d7c0"] ;
285 -> 287 ;
288 [label="node #288\nmse = 0.0\nsamples = 1\nvalue = 100000.0", fillcolor="#fbebdf"] ;
244 -> 288 ;
289 [label="node #289\nPCIP24 <= 0.02\nmse = 388467272.73\nsamples = 8\nvalue = 159300.0", fillcolor="#f8dcc8"] ;
243 -> 289 ;
290 [label="node #290\nPCIP11 <= 0.01\nmse = 134600000.0\nsamples = 5\nvalue = 144600.0", fillcolor="#f9e0ce"] ;
289 -> 290 ;
291 [label="node #291\nPCIP26 <= 0.07\nmse = 13910400.0\nsamples = 4\nvalue = 149560.0", fillcolor="#f8dfcc"] ;
290 -> 291 ;
292 [label="node #292\nPCIP13 <= 0.1\nmse = 2767500.0\nsamples = 3\nvalue = 147850.0", fillcolor="#f8dfcd"] ;
291 -> 292 ;
293 [label="node #293\nmse = 0.0\nsamples = 1\nvalue = 150700.0", fillcolor="#f8decc"] ;
292 -> 293 ;
294 [label="node #294\nPCIP13 <= 0.19\nmse = 80000.0\nsamples = 2\nvalue = 146900.0", fillcolor="#f8dfcd"] ;
292 -> 294 ;
295 [label="node #295\nmse = 0.0\nsamples = 1\nvalue = 147300.0", fillcolor="#f8dfcd"] ;
294 -> 295 ;
296 [label="node #296\nmse = 0.0\nsamples = 1\nvalue = 146700.0", fillcolor="#f8dfcd"] ;
294 -> 296 ;
297 [label="node #297\nmse = 0.0\nsamples = 1\nvalue = 156400.0", fillcolor="#f8ddca"] ;
291 -> 297 ;
298 [label="node #298\nmse = 0.0\nsamples = 1\nvalue = 119800.0", fillcolor="#fae6d8"] ;
290 -> 298 ;
299 [label="node #299\nPCIP13 <= 0.08\nmse = 122630400.0\nsamples = 3\nvalue = 176940.0", fillcolor="#f7d8c2"] ;
289 -> 299 ;
300 [label="node #300\nmse = 0.0\nsamples = 1\nvalue = 190500.0", fillcolor="#f6d5bc"] ;
299 -> 300 ;
301 [label="node #301\nPCIP50 <= 0.04\nmse = 80000.0\nsamples = 2\nvalue = 167900.0", fillcolor="#f7dac5"] ;
299 -> 301 ;
302 [label="node #302\nmse = 0.0\nsamples = 1\nvalue = 167700.0", fillcolor="#f7dac5"] ;
301 -> 302 ;
303 [label="node #303\nmse = 0.0\nsamples = 1\nvalue = 168300.0", fillcolor="#f7dac5"] ;
301 -> 303 ;
304 [label="node #304\nmse = 0.0\nsamples = 1\nvalue = 106700.0", fillcolor="#fbe9dd"] ;
242 -> 304 ;
305 [label="node #305\nPCIP31 <= 0.01\nmse = 649460000.0\nsamples = 6\nvalue = 223433.33", fillcolor="#f5cdb0"] ;
229 -> 305 ;
306 [label="node #306\nPCIP51 <= 0.4\nmse = 98721388.89\nsamples = 4\nvalue = 240483.33", fillcolor="#f4c8a9"] ;
305 -> 306 ;
307 [label="node #307\nPCIP42 <= 0.05\nmse = 9908888.89\nsamples = 3\nvalue = 250166.67", fillcolor="#f3c6a5"] ;
306 -> 307 ;
308 [label="node #308\nmse = 0.0\nsamples = 1\nvalue = 254600.0", fillcolor="#f3c5a4"] ;
307 -> 308 ;
309 [label="node #309\nPCIP42 <= 0.09\nmse = 122500.0\nsamples = 2\nvalue = 247950.0", fillcolor="#f3c6a6"] ;
307 -> 309 ;
310 [label="node #310\nmse = 0.0\nsamples = 1\nvalue = 248300.0", fillcolor="#f3c6a6"] ;
309 -> 310 ;
311 [label="node #311\nmse = 0.0\nsamples = 1\nvalue = 247600.0", fillcolor="#f3c7a6"] ;
309 -> 311 ;
312 [label="node #312\nmse = 0.0\nsamples = 1\nvalue = 230800.0", fillcolor="#f4cbad"] ;
306 -> 312 ;
313 [label="node #313\nPCIP31 <= 0.03\nmse = 6722222.22\nsamples = 2\nvalue = 189333.33", fillcolor="#f6d5bd"] ;
305 -> 313 ;
314 [label="node #314\nmse = 0.0\nsamples = 1\nvalue = 193000.0", fillcolor="#f6d4bb"] ;
313 -> 314 ;
315 [label="node #315\nmse = 0.0\nsamples = 1\nvalue = 187500.0", fillcolor="#f6d5be"] ;
313 -> 315 ;
316 [label="node #316\nmse = 0.0\nsamples = 1\nvalue = 245000.0", fillcolor="#f3c7a7"] ;
160 -> 316 ;
317 [label="node #317\nPCIP43 <= 0.01\nmse = 450804500.0\nsamples = 4\nvalue = 136150.0", fillcolor="#f9e2d1"] ;
159 -> 317 ;
318 [label="node #318\nmse = 0.0\nsamples = 1\nvalue = 192200.0", fillcolor="#f6d4bc"] ;
317 -> 318 ;
319 [label="node #319\nPCIP11 <= 0.03\nmse = 113041728.4\nsamples = 3\nvalue = 129922.22", fillcolor="#f9e4d4"] ;
317 -> 319 ;
320 [label="node #320\nPCIP11 <= 0.01\nmse = 421875.0\nsamples = 2\nvalue = 133675.0", fillcolor="#f9e3d2"] ;
319 -> 320 ;
321 [label="node #321\nmse = 0.0\nsamples = 1\nvalue = 134800.0", fillcolor="#f9e2d2"] ;
320 -> 321 ;
322 [label="node #322\nmse = 0.0\nsamples = 1\nvalue = 133300.0", fillcolor="#f9e3d3"] ;
320 -> 322 ;
323 [label="node #323\nmse = 0.0\nsamples = 1\nvalue = 99900.0", fillcolor="#fbebdf"] ;
319 -> 323 ;
324 [label="node #324\nPCIP43 <= 0.17\nmse = 682051428.57\nsamples = 8\nvalue = 205000.0", fillcolor="#f6d1b7"] ;
158 -> 324 ;
325 [label="node #325\nPCIP24 <= 0.02\nmse = 181500000.0\nsamples = 2\nvalue = 231100.0", fillcolor="#f4cbad"] ;
324 -> 325 ;
326 [label="node #326\nmse = 0.0\nsamples = 1\nvalue = 247600.0", fillcolor="#f3c7a6"] ;
325 -> 326 ;
327 [label="node #327\nmse = 0.0\nsamples = 1\nvalue = 220100.0", fillcolor="#f5cdb1"] ;
325 -> 327 ;
328 [label="node #328\nPCIP31 <= 0.01\nmse = 371435555.56\nsamples = 6\nvalue = 190500.0", fillcolor="#f6d5bc"] ;
324 -> 328 ;
329 [label="node #329\nPCIP11 <= 0.05\nmse = 54722400.0\nsamples = 2\nvalue = 206260.0", fillcolor="#f5d1b6"] ;
328 -> 329 ;
330 [label="node #330\nmse = 0.0\nsamples = 1\nvalue = 197200.0", fillcolor="#f6d3ba"] ;
329 -> 330 ;
331 [label="node #331\nmse = 0.0\nsamples = 1\nvalue = 212300.0", fillcolor="#f5cfb4"] ;
329 -> 331 ;
332 [label="node #332\nPCIP39 <= 0.01\nmse = 68765000.0\nsamples = 4\nvalue = 170800.0", fillcolor="#f7d9c4"] ;
328 -> 332 ;
333 [label="node #333\nPCIP42 <= 0.05\nmse = 2890000.0\nsamples = 2\nvalue = 179000.0", fillcolor="#f7d7c1"] ;
332 -> 333 ;
334 [label="node #334\nmse = 0.0\nsamples = 1\nvalue = 177300.0", fillcolor="#f7d8c2"] ;
333 -> 334 ;
335 [label="node #335\nmse = 0.0\nsamples = 1\nvalue = 180700.0", fillcolor="#f7d7c0"] ;
333 -> 335 ;
336 [label="node #336\nPCIP13 <= 0.05\nmse = 160000.0\nsamples = 2\nvalue = 162600.0", fillcolor="#f8dbc7"] ;
332 -> 336 ;
337 [label="node #337\nmse = 0.0\nsamples = 1\nvalue = 163000.0", fillcolor="#f8dbc7"] ;
336 -> 337 ;
338 [label="node #338\nmse = 0.0\nsamples = 1\nvalue = 162200.0", fillcolor="#f8dcc7"] ;
336 -> 338 ;
339 [label="node #339\nPCIP42 <= 0.04\nmse = 897870000.0\nsamples = 2\nvalue = 124000.0", fillcolor="#fae5d6"] ;
157 -> 339 ;
340 [label="node #340\nmse = 0.0\nsamples = 1\nvalue = 106700.0", fillcolor="#fbe9dd"] ;
339 -> 340 ;
341 [label="node #341\nmse = 0.0\nsamples = 1\nvalue = 175900.0", fillcolor="#f7d8c2"] ;
339 -> 341 ;
342 [label="node #342\nPCIP11 <= 0.03\nmse = 11560156875.0\nsamples = 3\nvalue = 244675.0", fillcolor="#f4c7a7"] ;
156 -> 342 ;
343 [label="node #343\nmse = 0.0\nsamples = 1\nvalue = 430900.0", fillcolor="#ea995f"] ;
342 -> 343 ;
344 [label="node #344\nPCIP11 <= 0.06\nmse = 320000.0\nsamples = 2\nvalue = 182600.0", fillcolor="#f7d7bf"] ;
342 -> 344 ;
345 [label="node #345\nmse = 0.0\nsamples = 1\nvalue = 182200.0", fillcolor="#f7d7c0"] ;
344 -> 345 ;
346 [label="node #346\nmse = 0.0\nsamples = 1\nvalue = 183400.0", fillcolor="#f7d6bf"] ;
344 -> 346 ;
347 [label="node #347\nPCIP51 <= 0.76\nmse = 1364706835.94\nsamples = 8\nvalue = 129606.25", fillcolor="#f9e4d4"] ;
5 -> 347 ;
348 [label="node #348\nPCIP15 <= 0.0\nmse = 26323209.88\nsamples = 3\nvalue = 103011.11", fillcolor="#fbeade"] ;
347 -> 348 ;
349 [label="node #349\nPCIP30 <= 0.01\nmse = 12001224.49\nsamples = 2\nvalue = 105214.29", fillcolor="#fbeadd"] ;
348 -> 349 ;
350 [label="node #350\nmse = 0.0\nsamples = 1\nvalue = 113700.0", fillcolor="#fae8da"] ;
349 -> 350 ;
351 [label="node #351\nmse = 0.0\nsamples = 1\nvalue = 103800.0", fillcolor="#fbeade"] ;
349 -> 351 ;
352 [label="node #352\nmse = 0.0\nsamples = 1\nvalue = 95300.0", fillcolor="#fbece1"] ;
348 -> 352 ;
353 [label="node #353\nPCIP43 <= 0.05\nmse = 1006885714.29\nsamples = 5\nvalue = 163800.0", fillcolor="#f8dbc7"] ;
347 -> 353 ;
354 [label="node #354\nPCIP42 <= 0.03\nmse = 4034400.0\nsamples = 4\nvalue = 183840.0", fillcolor="#f7d6bf"] ;
353 -> 354 ;
355 [label="node #355\nmse = 0.0\nsamples = 2\nvalue = 186300.0", fillcolor="#f6d6be"] ;
354 -> 355 ;
356 [label="node #356\nmse = 0.0\nsamples = 2\nvalue = 182200.0", fillcolor="#f7d7c0"] ;
354 -> 356 ;
357 [label="node #357\nmse = 0.0\nsamples = 1\nvalue = 113700.0", fillcolor="#fae8da"] ;
353 -> 357 ;
358 [label="node #358\nPCIP30 <= 0.02\nmse = 24979802500.0\nsamples = 2\nvalue = 372150.0", fillcolor="#eda876"] ;
4 -> 358 ;
359 [label="node #359\nmse = 0.0\nsamples = 1\nvalue = 530200.0", fillcolor="#e58139"] ;
358 -> 359 ;
360 [label="node #360\nmse = 0.0\nsamples = 1\nvalue = 214100.0", fillcolor="#f5cfb3"] ;
358 -> 360 ;
361 [label="node #361\nPCIP39 <= 0.95\nmse = 2261856275.0\nsamples = 13\nvalue = 96765.0", fillcolor="#fbece1"] ;
3 -> 361 ;
362 [label="node #362\nmse = 0.0\nsamples = 1\nvalue = 29900.0", fillcolor="#fefcfb"] ;
361 -> 362 ;
363 [label="node #363\nmse = 1961207191.36\nsamples = 12\nvalue = 104194.44", fillcolor="#fbeade"] ;
361 -> 363 ;
364 [label="node #364\nPCIP45 <= 0.25\nmse = 1787980620.94\nsamples = 443\nvalue = 210680.06", fillcolor="#f5d0b5"] ;
2 -> 364 ;
365 [label="node #365\nPCIP43 <= 0.04\nmse = 1316182004.1\nsamples = 426\nvalue = 207205.07", fillcolor="#f5d1b6"] ;
364 -> 365 ;
366 [label="node #366\nPCIP13 <= 0.05\nmse = 1254275351.35\nsamples = 244\nvalue = 216196.63", fillcolor="#f5ceb2"] ;
365 -> 366 ;
367 [label="node #367\nPCIP50 <= 0.06\nmse = 1531004648.75\nsamples = 134\nvalue = 227368.1", fillcolor="#f4ccae"] ;
366 -> 367 ;
368 [label="node #368\nPCIP24 <= 0.12\nmse = 1267644058.16\nsamples = 92\nvalue = 237139.58", fillcolor="#f4c9aa"] ;
367 -> 368 ;
369 [label="node #369\nPCIP31 <= 0.05\nmse = 1097844946.63\nsamples = 84\nvalue = 241588.64", fillcolor="#f4c8a9"] ;
368 -> 369 ;
370 [label="node #370\nPCIP43 <= 0.0\nmse = 969121463.75\nsamples = 57\nvalue = 248806.45", fillcolor="#f3c6a6"] ;
369 -> 370 ;
371 [label="node #371\nPCIP26 <= 0.04\nmse = 796987417.75\nsamples = 40\nvalue = 241647.69", fillcolor="#f4c8a9"] ;
370 -> 371 ;
372 [label="node #372\nPCIP51 <= 0.6\nmse = 1178636400.0\nsamples = 7\nvalue = 213540.0", fillcolor="#f5cfb4"] ;
371 -> 372 ;
373 [label="node #373\nPCIP44 <= 0.12\nmse = 427114375.0\nsamples = 6\nvalue = 199075.0", fillcolor="#f6d3b9"] ;
372 -> 373 ;
374 [label="node #374\nPCIP30 <= 0.1\nmse = 93325714.29\nsamples = 5\nvalue = 206100.0", fillcolor="#f5d1b6"] ;
373 -> 374 ;
375 [label="node #375\nPCIP11 <= 0.03\nmse = 24755555.56\nsamples = 4\nvalue = 202633.33", fillcolor="#f6d2b8"] ;
374 -> 375 ;
376 [label="node #376\nPCIP15 <= 0.01\nmse = 2890000.0\nsamples = 2\nvalue = 199400.0", fillcolor="#f6d2b9"] ;
375 -> 376 ;
377 [label="node #377\nmse = 0.0\nsamples = 1\nvalue = 197700.0", fillcolor="#f6d3ba"] ;
376 -> 377 ;
378 [label="node #378\nmse = 0.0\nsamples = 1\nvalue = 201100.0", fillcolor="#f6d2b8"] ;
376 -> 378 ;
379 [label="node #379\nPCIP13 <= 0.01\nmse = 5760000.0\nsamples = 2\nvalue = 209100.0", fillcolor="#f5d0b5"] ;
375 -> 379 ;
380 [label="node #380\nmse = 0.0\nsamples = 1\nvalue = 211500.0", fillcolor="#f5cfb4"] ;
379 -> 380 ;
381 [label="node #381\nmse = 0.0\nsamples = 1\nvalue = 206700.0", fillcolor="#f5d1b6"] ;
379 -> 381 ;
382 [label="node #382\nmse = 0.0\nsamples = 1\nvalue = 226900.0", fillcolor="#f4ccae"] ;
374 -> 382 ;
383 [label="node #383\nmse = 0.0\nsamples = 1\nvalue = 149900.0", fillcolor="#f8dfcc"] ;
373 -> 383 ;
384 [label="node #384\nmse = 0.0\nsamples = 1\nvalue = 271400.0", fillcolor="#f2c19d"] ;
372 -> 384 ;
385 [label="node #385\nPCIP42 <= 0.14\nmse = 557835523.97\nsamples = 33\nvalue = 246758.18", fillcolor="#f3c7a7"] ;
371 -> 385 ;
386 [label="node #386\nPCIP44 <= 0.06\nmse = 505384508.14\nsamples = 31\nvalue = 248817.31", fillcolor="#f3c6a6"] ;
385 -> 386 ;
387 [label="node #387\nPCIP40 <= 0.0\nmse = 471670172.84\nsamples = 28\nvalue = 245322.22", fillcolor="#f3c7a7"] ;
386 -> 387 ;
388 [label="node #388\nPCIP51 <= 0.61\nmse = 732602222.22\nsamples = 3\nvalue = 206666.67", fillcolor="#f5d1b6"] ;
387 -> 388 ;
389 [label="node #389\nPCIP27 <= 0.0\nmse = 204490000.0\nsamples = 2\nvalue = 189400.0", fillcolor="#f6d5bd"] ;
388 -> 389 ;
390 [label="node #390\nmse = 0.0\nsamples = 1\nvalue = 175100.0", fillcolor="#f7d8c2"] ;
389 -> 390 ;
391 [label="node #391\nmse = 0.0\nsamples = 1\nvalue = 203700.0", fillcolor="#f6d1b7"] ;
389 -> 391 ;
392 [label="node #392\nmse = 0.0\nsamples = 1\nvalue = 241200.0", fillcolor="#f4c8a9"] ;
388 -> 392 ;
393 [label="node #393\nPCIP26 <= 0.12\nmse = 338676150.79\nsamples = 25\nvalue = 248083.33", fillcolor="#f3c6a6"] ;
387 -> 393 ;
394 [label="node #394\nPCIP24 <= 0.0\nmse = 337112208.5\nsamples = 15\nvalue = 254396.3", fillcolor="#f3c5a4"] ;
393 -> 394 ;
395 [label="node #395\nPCIP27 <= 0.03\nmse = 310145619.83\nsamples = 7\nvalue = 268572.73", fillcolor="#f2c19e"] ;
394 -> 395 ;
396 [label="node #396\nPCIP27 <= 0.02\nmse = 112825306.12\nsamples = 5\nvalue = 279657.14", fillcolor="#f2bf9a"] ;
395 -> 396 ;
397 [label="node #397\nPCIP40 <= 0.03\nmse = 4622500.0\nsamples = 2\nvalue = 271450.0", fillcolor="#f2c19d"] ;
396 -> 397 ;
398 [label="node #398\nmse = 0.0\nsamples = 1\nvalue = 273600.0", fillcolor="#f2c09c"] ;
397 -> 398 ;
399 [label="node #399\nmse = 0.0\nsamples = 1\nvalue = 269300.0", fillcolor="#f2c19e"] ;
397 -> 399 ;
400 [label="node #400\nPCIP03 <= 0.01\nmse = 47540000.0\nsamples = 3\nvalue = 290600.0", fillcolor="#f1bc96"] ;
396 -> 400 ;
401 [label="node #401\nmse = 0.0\nsamples = 1\nvalue = 299500.0", fillcolor="#f1ba92"] ;
400 -> 401 ;
402 [label="node #402\nPCIP42 <= 0.07\nmse = 11902500.0\nsamples = 2\nvalue = 286150.0", fillcolor="#f1bd97"] ;
400 -> 402 ;
403 [label="node #403\nmse = 0.0\nsamples = 1\nvalue = 282700.0", fillcolor="#f2be99"] ;
402 -> 403 ;
404 [label="node #404\nmse = 0.0\nsamples = 1\nvalue = 289600.0", fillcolor="#f1bc96"] ;
402 -> 404 ;
405 [label="node #405\nPCIP45 <= 0.11\nmse = 64171875.0\nsamples = 2\nvalue = 249175.0", fillcolor="#f3c6a6"] ;
395 -> 405 ;
406 [label="node #406\nmse = 0.0\nsamples = 1\nvalue = 235300.0", fillcolor="#f4caab"] ;
405 -> 406 ;
407 [label="node #407\nmse = 0.0\nsamples = 1\nvalue = 253800.0", fillcolor="#f3c5a4"] ;
405 -> 407 ;
408 [label="node #408\nPCIP42 <= 0.09\nmse = 122493750.0\nsamples = 8\nvalue = 244650.0", fillcolor="#f4c7a7"] ;
394 -> 408 ;
409 [label="node #409\nPCIP16 <= 0.01\nmse = 61073724.49\nsamples = 6\nvalue = 247764.29", fillcolor="#f3c7a6"] ;
408 -> 409 ;
410 [label="node #410\nPCIP40 <= 0.02\nmse = 17060987.65\nsamples = 4\nvalue = 242588.89", fillcolor="#f4c8a8"] ;
409 -> 410 ;
411 [label="node #411\nPCIP50 <= 0.03\nmse = 779591.84\nsamples = 3\nvalue = 244757.14", fillcolor="#f4c7a7"] ;
410 -> 411 ;
412 [label="node #412\nPCIP14 <= 0.01\nmse = 35555.56\nsamples = 2\nvalue = 245766.67", fillcolor="#f3c7a7"] ;
411 -> 412 ;
413 [label="node #413\nmse = 0.0\nsamples = 1\nvalue = 245900.0", fillcolor="#f3c7a7"] ;
412 -> 413 ;
414 [label="node #414\nmse = 0.0\nsamples = 1\nvalue = 245500.0", fillcolor="#f3c7a7"] ;
412 -> 414 ;
415 [label="node #415\nmse = 0.0\nsamples = 1\nvalue = 244000.0", fillcolor="#f4c7a8"] ;
411 -> 415 ;
416 [label="node #416\nmse = 0.0\nsamples = 1\nvalue = 235000.0", fillcolor="#f4caab"] ;
410 -> 416 ;
417 [label="node #417\nPCIP30 <= 0.0\nmse = 5301600.0\nsamples = 2\nvalue = 257080.0", fillcolor="#f3c4a3"] ;
409 -> 417 ;
418 [label="node #418\nmse = 0.0\nsamples = 1\nvalue = 255200.0", fillcolor="#f3c5a3"] ;
417 -> 418 ;
419 [label="node #419\nmse = 0.0\nsamples = 1\nvalue = 259900.0", fillcolor="#f3c4a2"] ;
417 -> 419 ;
420 [label="node #420\nPCIP26 <= 0.1\nmse = 9302500.0\nsamples = 2\nvalue = 222850.0", fillcolor="#f5cdb0"] ;
408 -> 420 ;
421 [label="node #421\nmse = 0.0\nsamples = 1\nvalue = 225900.0", fillcolor="#f4ccaf"] ;
420 -> 421 ;
422 [label="node #422\nmse = 0.0\nsamples = 1\nvalue = 219800.0", fillcolor="#f5cdb1"] ;
420 -> 422 ;
423 [label="node #423\nPCIP13 <= 0.02\nmse = 140629600.0\nsamples = 10\nvalue = 236720.0", fillcolor="#f4c9ab"] ;
393 -> 423 ;
424 [label="node #424\nPCIP45 <= 0.21\nmse = 101810500.0\nsamples = 7\nvalue = 242750.0", fillcolor="#f4c8a8"] ;
423 -> 424 ;
425 [label="node #425\nPCIP03 <= 0.03\nmse = 34411358.02\nsamples = 6\nvalue = 245555.56", fillcolor="#f3c7a7"] ;
424 -> 425 ;
426 [label="node #426\nPCIP03 <= 0.02\nmse = 23345555.56\nsamples = 4\nvalue = 248233.33", fillcolor="#f3c6a6"] ;
425 -> 426 ;
427 [label="node #427\nPCIP13 <= 0.01\nmse = 1080000.0\nsamples = 2\nvalue = 244900.0", fillcolor="#f3c7a7"] ;
426 -> 427 ;
428 [label="node #428\nmse = 0.0\nsamples = 1\nvalue = 246700.0", fillcolor="#f3c7a7"] ;
427 -> 428 ;
429 [label="node #429\nmse = 0.0\nsamples = 1\nvalue = 244300.0", fillcolor="#f4c7a8"] ;
427 -> 429 ;
430 [label="node #430\nPCIP45 <= 0.15\nmse = 1210000.0\nsamples = 2\nvalue = 254900.0", fillcolor="#f3c5a4"] ;
426 -> 430 ;
431 [label="node #431\nmse = 0.0\nsamples = 1\nvalue = 256000.0", fillcolor="#f3c5a3"] ;
430 -> 431 ;
432 [label="node #432\nmse = 0.0\nsamples = 1\nvalue = 253800.0", fillcolor="#f3c5a4"] ;
430 -> 432 ;
433 [label="node #433\nPCIP40 <= 0.05\nmse = 13520000.0\nsamples = 2\nvalue = 240200.0", fillcolor="#f4c8a9"] ;
425 -> 433 ;
434 [label="node #434\nmse = 0.0\nsamples = 1\nvalue = 242800.0", fillcolor="#f4c8a8"] ;
433 -> 434 ;
435 [label="node #435\nmse = 0.0\nsamples = 1\nvalue = 235000.0", fillcolor="#f4caab"] ;
433 -> 435 ;
436 [label="node #436\nmse = 0.0\nsamples = 1\nvalue = 217500.0", fillcolor="#f5ceb2"] ;
424 -> 436 ;
437 [label="node #437\nPCIP27 <= 0.02\nmse = 102400.0\nsamples = 3\nvalue = 224660.0", fillcolor="#f5ccaf"] ;
423 -> 437 ;
438 [label="node #438\nmse = 0.0\nsamples = 1\nvalue = 224100.0", fillcolor="#f5ccaf"] ;
437 -> 438 ;
439 [label="node #439\nPCIP11 <= 0.02\nmse = 30000.0\nsamples = 2\nvalue = 224800.0", fillcolor="#f5ccaf"] ;
437 -> 439 ;
440 [label="node #440\nmse = 0.0\nsamples = 1\nvalue = 225100.0", fillcolor="#f4ccaf"] ;
439 -> 440 ;
441 [label="node #441\nmse = 0.0\nsamples = 1\nvalue = 224700.0", fillcolor="#f5ccaf"] ;
439 -> 441 ;
442 [label="node #442\nPCIP16 <= 0.01\nmse = 138761224.49\nsamples = 3\nvalue = 271285.71", fillcolor="#f2c19d"] ;
386 -> 442 ;
443 [label="node #443\nPCIP45 <= 0.05\nmse = 47040000.0\nsamples = 2\nvalue = 264800.0", fillcolor="#f2c2a0"] ;
442 -> 443 ;
444 [label="node #444\nmse = 0.0\nsamples = 1\nvalue = 256400.0", fillcolor="#f3c4a3"] ;
443 -> 444 ;
445 [label="node #445\nmse = 0.0\nsamples = 1\nvalue = 270400.0", fillcolor="#f2c19e"] ;
443 -> 445 ;
446 [label="node #446\nmse = 0.0\nsamples = 1\nvalue = 287500.0", fillcolor="#f1bd97"] ;
442 -> 446 ;
447 [label="node #447\nPCIP45 <= 0.1\nmse = 119608888.89\nsamples = 2\nvalue = 211066.67", fillcolor="#f5d0b4"] ;
385 -> 447 ;
448 [label="node #448\nmse = 0.0\nsamples = 1\nvalue = 195600.0", fillcolor="#f6d3ba"] ;
447 -> 448 ;
449 [label="node #449\nmse = 0.0\nsamples = 1\nvalue = 218800.0", fillcolor="#f5ceb1"] ;
447 -> 449 ;
450 [label="node #450\nPCIP43 <= 0.0\nmse = 973574017.86\nsamples = 17\nvalue = 265425.0", fillcolor="#f2c29f"] ;
370 -> 450 ;
451 [label="node #451\nmse = 0.0\nsamples = 1\nvalue = 391400.0", fillcolor="#eca36f"] ;
450 -> 451 ;
452 [label="node #452\nPCIP27 <= 0.01\nmse = 400096488.34\nsamples = 16\nvalue = 260759.26", fillcolor="#f3c3a1"] ;
450 -> 452 ;
453 [label="node #453\nPCIP30 <= 0.01\nmse = 154556528.93\nsamples = 9\nvalue = 243027.27", fillcolor="#f4c8a8"] ;
452 -> 453 ;
454 [label="node #454\nPCIP03 <= 0.0\nmse = 51854320.99\nsamples = 7\nvalue = 248011.11", fillcolor="#f3c6a6"] ;
453 -> 454 ;
455 [label="node #455\nPCIP11 <= 0.07\nmse = 12416875.0\nsamples = 4\nvalue = 241275.0", fillcolor="#f4c8a9"] ;
454 -> 455 ;
456 [label="node #456\nPCIP13 <= 0.04\nmse = 4410000.0\nsamples = 2\nvalue = 238300.0", fillcolor="#f4c9aa"] ;
455 -> 456 ;
457 [label="node #457\nmse = 0.0\nsamples = 1\nvalue = 240400.0", fillcolor="#f4c8a9"] ;
456 -> 457 ;
458 [label="node #458\nmse = 0.0\nsamples = 1\nvalue = 236200.0", fillcolor="#f4c9ab"] ;
456 -> 458 ;
459 [label="node #459\nPCIP54 <= 0.02\nmse = 2722500.0\nsamples = 2\nvalue = 244250.0", fillcolor="#f4c7a8"] ;
455 -> 459 ;
460 [label="node #460\nmse = 0.0\nsamples = 1\nvalue = 242600.0", fillcolor="#f4c8a8"] ;
459 -> 460 ;
461 [label="node #461\nmse = 0.0\nsamples = 1\nvalue = 245900.0", fillcolor="#f3c7a7"] ;
459 -> 461 ;
462 [label="node #462\nPCIP16 <= 0.01\nmse = 18064000.0\nsamples = 3\nvalue = 253400.0", fillcolor="#f3c5a4"] ;
454 -> 462 ;
463 [label="node #463\nPCIP03 <= 0.01\nmse = 6760000.0\nsamples = 2\nvalue = 258200.0", fillcolor="#f3c4a2"] ;
462 -> 463 ;
464 [label="node #464\nmse = 0.0\nsamples = 1\nvalue = 255600.0", fillcolor="#f3c5a3"] ;
463 -> 464 ;
465 [label="node #465\nmse = 0.0\nsamples = 1\nvalue = 260800.0", fillcolor="#f3c3a1"] ;
463 -> 465 ;
466 [label="node #466\nmse = 0.0\nsamples = 1\nvalue = 250200.0", fillcolor="#f3c6a5"] ;
462 -> 466 ;
467 [label="node #467\nPCIP43 <= 0.03\nmse = 1960000.0\nsamples = 2\nvalue = 220600.0", fillcolor="#f5cdb1"] ;
453 -> 467 ;
468 [label="node #468\nmse = 0.0\nsamples = 1\nvalue = 222000.0", fillcolor="#f5cdb0"] ;
467 -> 468 ;
469 [label="node #469\nmse = 0.0\nsamples = 1\nvalue = 219200.0", fillcolor="#f5ceb1"] ;
467 -> 469 ;
470 [label="node #470\nPCIP51 <= 0.37\nmse = 204125000.0\nsamples = 7\nvalue = 272950.0", fillcolor="#f2c09d"] ;
452 -> 470 ;
471 [label="node #471\nPCIP11 <= 0.01\nmse = 80048994.08\nsamples = 6\nvalue = 267284.62", fillcolor="#f2c29f"] ;
470 -> 471 ;
472 [label="node #472\nmse = 0.0\nsamples = 1\nvalue = 242300.0", fillcolor="#f4c8a8"] ;
471 -> 472 ;
473 [label="node #473\nPCIP54 <= 0.01\nmse = 30365555.56\nsamples = 5\nvalue = 269366.67", fillcolor="#f2c19e"] ;
471 -> 473 ;
474 [label="node #474\nmse = 0.0\nsamples = 1\nvalue = 285400.0", fillcolor="#f1bd98"] ;
473 -> 474 ;
475 [label="node #475\nPCIP03 <= 0.01\nmse = 7631735.54\nsamples = 4\nvalue = 267909.09", fillcolor="#f2c29e"] ;
473 -> 475 ;
476 [label="node #476\nPCIP43 <= 0.02\nmse = 86400.0\nsamples = 2\nvalue = 270760.0", fillcolor="#f2c19d"] ;
475 -> 476 ;
477 [label="node #477\nmse = 0.0\nsamples = 1\nvalue = 270400.0", fillcolor="#f2c19e"] ;
476 -> 477 ;
478 [label="node #478\nmse = 0.0\nsamples = 1\nvalue = 271000.0", fillcolor="#f2c19d"] ;
476 -> 478 ;
479 [label="node #479\nPCIP11 <= 0.05\nmse = 1502222.22\nsamples = 2\nvalue = 265533.33", fillcolor="#f2c29f"] ;
475 -> 479 ;
480 [label="node #480\nmse = 0.0\nsamples = 1\nvalue = 263800.0", fillcolor="#f3c3a0"] ;
479 -> 480 ;
481 [label="node #481\nmse = 0.0\nsamples = 1\nvalue = 266400.0", fillcolor="#f2c29f"] ;
479 -> 481 ;
482 [label="node #482\nmse = 0.0\nsamples = 1\nvalue = 297500.0", fillcolor="#f1ba93"] ;
470 -> 482 ;
483 [label="node #483\nPCIP19 <= 0.01\nmse = 984326903.35\nsamples = 27\nvalue = 224376.92", fillcolor="#f5ccaf"] ;
369 -> 483 ;
484 [label="node #484\nPCIP14 <= 0.0\nmse = 879180622.84\nsamples = 23\nvalue = 229823.53", fillcolor="#f4cbad"] ;
483 -> 484 ;
485 [label="node #485\nPCIP44 <= 0.01\nmse = 650340446.43\nsamples = 18\nvalue = 223825.0", fillcolor="#f5ccb0"] ;
484 -> 485 ;
486 [label="node #486\nPCIP03 <= 0.05\nmse = 501027822.22\nsamples = 10\nvalue = 235913.33", fillcolor="#f4c9ab"] ;
485 -> 486 ;
487 [label="node #487\nPCIP30 <= 0.02\nmse = 314368010.2\nsamples = 9\nvalue = 239764.29", fillcolor="#f4c9a9"] ;
486 -> 487 ;
488 [label="node #488\nPCIP43 <= 0.01\nmse = 154778888.89\nsamples = 7\nvalue = 245266.67", fillcolor="#f3c7a7"] ;
487 -> 488 ;
489 [label="node #489\nPCIP31 <= 0.09\nmse = 63607654.32\nsamples = 5\nvalue = 251111.11", fillcolor="#f3c6a5"] ;
488 -> 489 ;
490 [label="node #490\nPCIP51 <= 0.23\nmse = 27219183.67\nsamples = 3\nvalue = 247671.43", fillcolor="#f3c7a6"] ;
489 -> 490 ;
491 [label="node #491\nPCIP39 <= 0.01\nmse = 40000.0\nsamples = 2\nvalue = 249800.0", fillcolor="#f3c6a5"] ;
490 -> 491 ;
492 [label="node #492\nmse = 0.0\nsamples = 1\nvalue = 250000.0", fillcolor="#f3c6a5"] ;
491 -> 492 ;
493 [label="node #493\nmse = 0.0\nsamples = 1\nvalue = 249600.0", fillcolor="#f3c6a6"] ;
491 -> 493 ;
494 [label="node #494\nmse = 0.0\nsamples = 1\nvalue = 234900.0", fillcolor="#f4caab"] ;
490 -> 494 ;
495 [label="node #495\nPCIP42 <= 0.1\nmse = 4622500.0\nsamples = 2\nvalue = 263150.0", fillcolor="#f3c3a0"] ;
489 -> 495 ;
496 [label="node #496\nmse = 0.0\nsamples = 1\nvalue = 261000.0", fillcolor="#f3c3a1"] ;
495 -> 496 ;
497 [label="node #497\nmse = 0.0\nsamples = 1\nvalue = 265300.0", fillcolor="#f2c29f"] ;
495 -> 497 ;
498 [label="node #498\nPCIP27 <= 0.01\nmse = 18402222.22\nsamples = 2\nvalue = 227733.33", fillcolor="#f4cbae"] ;
488 -> 498 ;
499 [label="node #499\nmse = 0.0\nsamples = 1\nvalue = 233800.0", fillcolor="#f4caac"] ;
498 -> 499 ;
500 [label="node #500\nmse = 0.0\nsamples = 1\nvalue = 224700.0", fillcolor="#f5ccaf"] ;
498 -> 500 ;
501 [label="node #501\nPCIP45 <= 0.12\nmse = 302500.0\nsamples = 2\nvalue = 206750.0", fillcolor="#f5d1b6"] ;
487 -> 501 ;
502 [label="node #502\nmse = 0.0\nsamples = 1\nvalue = 206200.0", fillcolor="#f5d1b6"] ;
501 -> 502 ;
503 [label="node #503\nmse = 0.0\nsamples = 1\nvalue = 207300.0", fillcolor="#f5d0b6"] ;
501 -> 503 ;
504 [label="node #504\nmse = 0.0\nsamples = 1\nvalue = 182000.0", fillcolor="#f7d7c0"] ;
486 -> 504 ;
505 [label="node #505\nPCIP11 <= 0.03\nmse = 459466390.53\nsamples = 8\nvalue = 209876.92", fillcolor="#f5d0b5"] ;
485 -> 505 ;
506 [label="node #506\nPCIP24 <= 0.02\nmse = 88783593.75\nsamples = 5\nvalue = 196012.5", fillcolor="#f6d3ba"] ;
505 -> 506 ;
507 [label="node #507\nPCIP45 <= 0.04\nmse = 19730400.0\nsamples = 3\nvalue = 189240.0", fillcolor="#f6d5bd"] ;
506 -> 507 ;
508 [label="node #508\nPCIP44 <= 0.04\nmse = 2402500.0\nsamples = 2\nvalue = 191350.0", fillcolor="#f6d4bc"] ;
507 -> 508 ;
509 [label="node #509\nmse = 0.0\nsamples = 1\nvalue = 189800.0", fillcolor="#f6d5bd"] ;
508 -> 509 ;
510 [label="node #510\nmse = 0.0\nsamples = 1\nvalue = 192900.0", fillcolor="#f6d4bb"] ;
508 -> 510 ;
511 [label="node #511\nmse = 0.0\nsamples = 1\nvalue = 180800.0", fillcolor="#f7d7c0"] ;
507 -> 511 ;
512 [label="node #512\nPCIP42 <= 0.1\nmse = 20000.0\nsamples = 2\nvalue = 207300.0", fillcolor="#f5d0b6"] ;
506 -> 512 ;
513 [label="node #513\nmse = 0.0\nsamples = 1\nvalue = 207200.0", fillcolor="#f5d1b6"] ;
512 -> 513 ;
514 [label="node #514\nmse = 0.0\nsamples = 1\nvalue = 207500.0", fillcolor="#f5d0b6"] ;
512 -> 514 ;
515 [label="node #515\nPCIP50 <= 0.05\nmse = 252914400.0\nsamples = 3\nvalue = 232060.0", fillcolor="#f4caac"] ;
505 -> 515 ;
516 [label="node #516\nPCIP13 <= 0.05\nmse = 64802500.0\nsamples = 2\nvalue = 239150.0", fillcolor="#f4c9aa"] ;
515 -> 516 ;
517 [label="node #517\nmse = 0.0\nsamples = 1\nvalue = 231100.0", fillcolor="#f4cbad"] ;
516 -> 517 ;
518 [label="node #518\nmse = 0.0\nsamples = 1\nvalue = 247200.0", fillcolor="#f3c7a6"] ;
516 -> 518 ;
519 [label="node #519\nmse = 0.0\nsamples = 1\nvalue = 203700.0", fillcolor="#f6d1b7"] ;
515 -> 519 ;
520 [label="node #520\nPCIP31 <= 0.09\nmse = 995568055.56\nsamples = 5\nvalue = 257816.67", fillcolor="#f3c4a2"] ;
484 -> 520 ;
521 [label="node #521\nPCIP40 <= 0.02\nmse = 173910400.0\nsamples = 4\nvalue = 270860.0", fillcolor="#f2c19d"] ;
520 -> 521 ;
522 [label="node #522\nPCIP14 <= 0.01\nmse = 49767500.0\nsamples = 3\nvalue = 276650.0", fillcolor="#f2bf9b"] ;
521 -> 522 ;
523 [label="node #523\nmse = 0.0\nsamples = 1\nvalue = 288000.0", fillcolor="#f1bd97"] ;
522 -> 523 ;
524 [label="node #524\nPCIP24 <= 0.04\nmse = 9102222.22\nsamples = 2\nvalue = 272866.67", fillcolor="#f2c09d"] ;
522 -> 524 ;
525 [label="node #525\nmse = 0.0\nsamples = 1\nvalue = 275000.0", fillcolor="#f2c09c"] ;
524 -> 525 ;
526 [label="node #526\nmse = 0.0\nsamples = 1\nvalue = 268600.0", fillcolor="#f2c19e"] ;
524 -> 526 ;
527 [label="node #527\nmse = 0.0\nsamples = 1\nvalue = 247700.0", fillcolor="#f3c7a6"] ;
521 -> 527 ;
528 [label="node #528\nmse = 0.0\nsamples = 1\nvalue = 192600.0", fillcolor="#f6d4bc"] ;
520 -> 528 ;
529 [label="node #529\nPCIP42 <= 0.06\nmse = 125862400.0\nsamples = 4\nvalue = 187340.0", fillcolor="#f6d5be"] ;
483 -> 529 ;
530 [label="node #530\nPCIP51 <= 0.06\nmse = 51067500.0\nsamples = 3\nvalue = 191950.0", fillcolor="#f6d4bc"] ;
529 -> 530 ;
531 [label="node #531\nmse = 0.0\nsamples = 1\nvalue = 204000.0", fillcolor="#f6d1b7"] ;
530 -> 531 ;
532 [label="node #532\nPCIP11 <= 0.02\nmse = 3555555.56\nsamples = 2\nvalue = 187933.33", fillcolor="#f6d5bd"] ;
530 -> 532 ;
533 [label="node #533\nmse = 0.0\nsamples = 1\nvalue = 190600.0", fillcolor="#f6d5bc"] ;
532 -> 533 ;
534 [label="node #534\nmse = 0.0\nsamples = 1\nvalue = 186600.0", fillcolor="#f6d6be"] ;
532 -> 534 ;
535 [label="node #535\nmse = 0.0\nsamples = 1\nvalue = 168900.0", fillcolor="#f7dac5"] ;
529 -> 535 ;
536 [label="node #536\nPCIP11 <= 0.02\nmse = 522616666.67\nsamples = 8\nvalue = 188200.0", fillcolor="#f6d5bd"] ;
368 -> 536 ;
537 [label="node #537\nPCIP42 <= 0.04\nmse = 256000000.0\nsamples = 2\nvalue = 144900.0", fillcolor="#f9e0ce"] ;
536 -> 537 ;
538 [label="node #538\nmse = 0.0\nsamples = 1\nvalue = 128900.0", fillcolor="#f9e4d4"] ;
537 -> 538 ;
539 [label="node #539\nmse = 0.0\nsamples = 1\nvalue = 160900.0", fillcolor="#f8dcc8"] ;
537 -> 539 ;
540 [label="node #540\nPCIP26 <= 0.02\nmse = 125966400.0\nsamples = 6\nvalue = 196860.0", fillcolor="#f6d3ba"] ;
536 -> 540 ;
541 [label="node #541\nPCIP31 <= 0.02\nmse = 23120000.0\nsamples = 2\nvalue = 181600.0", fillcolor="#f7d7c0"] ;
540 -> 541 ;
542 [label="node #542\nmse = 0.0\nsamples = 1\nvalue = 185000.0", fillcolor="#f7d6bf"] ;
541 -> 542 ;
543 [label="node #543\nmse = 0.0\nsamples = 1\nvalue = 174800.0", fillcolor="#f7d8c2"] ;
541 -> 543 ;
544 [label="node #544\nPCIP45 <= 0.05\nmse = 27471428.57\nsamples = 4\nvalue = 203400.0", fillcolor="#f6d1b7"] ;
540 -> 544 ;
545 [label="node #545\nPCIP40 <= 0.0\nmse = 3610000.0\nsamples = 2\nvalue = 196000.0", fillcolor="#f6d3ba"] ;
544 -> 545 ;
546 [label="node #546\nmse = 0.0\nsamples = 1\nvalue = 197900.0", fillcolor="#f6d3ba"] ;
545 -> 546 ;
547 [label="node #547\nmse = 0.0\nsamples = 1\nvalue = 194100.0", fillcolor="#f6d4bb"] ;
545 -> 547 ;
548 [label="node #548\nPCIP13 <= 0.05\nmse = 6350400.0\nsamples = 2\nvalue = 206360.0", fillcolor="#f5d1b6"] ;
544 -> 548 ;
549 [label="node #549\nmse = 0.0\nsamples = 1\nvalue = 205100.0", fillcolor="#f6d1b7"] ;
548 -> 549 ;
550 [label="node #550\nmse = 0.0\nsamples = 1\nvalue = 211400.0", fillcolor="#f5cfb4"] ;
548 -> 550 ;
551 [label="node #551\nPCIP27 <= 0.01\nmse = 1442759467.4\nsamples = 42\nvalue = 206048.48", fillcolor="#f5d1b6"] ;
367 -> 551 ;
552 [label="node #552\nPCIP26 <= 0.01\nmse = 1404378100.0\nsamples = 7\nvalue = 162870.0", fillcolor="#f8dbc7"] ;
551 -> 552 ;
553 [label="node #553\nPCIP11 <= 0.04\nmse = 91202500.0\nsamples = 2\nvalue = 223150.0", fillcolor="#f5cdb0"] ;
552 -> 553 ;
554 [label="node #554\nmse = 0.0\nsamples = 1\nvalue = 213600.0", fillcolor="#f5cfb3"] ;
553 -> 554 ;
555 [label="node #555\nmse = 0.0\nsamples = 1\nvalue = 232700.0", fillcolor="#f4caac"] ;
553 -> 555 ;
556 [label="node #556\nPCIP24 <= 0.03\nmse = 597147500.0\nsamples = 5\nvalue = 147800.0", fillcolor="#f8dfcd"] ;
552 -> 556 ;
557 [label="node #557\nPCIP40 <= 0.04\nmse = 30942222.22\nsamples = 2\nvalue = 120066.67", fillcolor="#fae6d8"] ;
556 -> 557 ;
558 [label="node #558\nmse = 0.0\nsamples = 1\nvalue = 112200.0", fillcolor="#fae8db"] ;
557 -> 558 ;
559 [label="node #559\nmse = 0.0\nsamples = 1\nvalue = 124000.0", fillcolor="#fae5d6"] ;
557 -> 559 ;
560 [label="node #560\nPCIP30 <= 0.01\nmse = 198498400.0\nsamples = 3\nvalue = 164440.0", fillcolor="#f8dbc7"] ;
556 -> 560 ;
561 [label="node #561\nmse = 0.0\nsamples = 1\nvalue = 148100.0", fillcolor="#f8dfcd"] ;
560 -> 561 ;
562 [label="node #562\nPCIP44 <= 0.01\nmse = 34168888.89\nsamples = 2\nvalue = 175333.33", fillcolor="#f7d8c2"] ;
560 -> 562 ;
563 [label="node #563\nmse = 0.0\nsamples = 1\nvalue = 171200.0", fillcolor="#f7d9c4"] ;
562 -> 563 ;
564 [label="node #564\nmse = 0.0\nsamples = 1\nvalue = 183600.0", fillcolor="#f7d6bf"] ;
562 -> 564 ;
565 [label="node #565\nPCIP26 <= 0.03\nmse = 1057237063.14\nsamples = 35\nvalue = 213758.93", fillcolor="#f5cfb3"] ;
551 -> 565 ;
566 [label="node #566\nPCIP13 <= 0.04\nmse = 303235555.56\nsamples = 3\nvalue = 162166.67", fillcolor="#f8dcc7"] ;
565 -> 566 ;
567 [label="node #567\nPCIP03 <= 0.01\nmse = 7526400.0\nsamples = 2\nvalue = 154460.0", fillcolor="#f8deca"] ;
566 -> 567 ;
568 [label="node #568\nmse = 0.0\nsamples = 1\nvalue = 151100.0", fillcolor="#f8decc"] ;
567 -> 568 ;
569 [label="node #569\nmse = 0.0\nsamples = 1\nvalue = 156700.0", fillcolor="#f8ddc9"] ;
567 -> 569 ;
570 [label="node #570\nmse = 0.0\nsamples = 1\nvalue = 200700.0", fillcolor="#f6d2b8"] ;
566 -> 570 ;
571 [label="node #571\nPCIP11 <= 0.0\nmse = 789976500.0\nsamples = 32\nvalue = 219950.0", fillcolor="#f5cdb1"] ;
565 -> 571 ;
572 [label="node #572\nPCIP03 <= 0.0\nmse = 266247768.6\nsamples = 8\nvalue = 189036.36", fillcolor="#f6d5bd"] ;
571 -> 572 ;
573 [label="node #573\nPCIP16 <= 0.02\nmse = 92862400.0\nsamples = 4\nvalue = 202860.0", fillcolor="#f6d2b8"] ;
572 -> 573 ;
574 [label="node #574\nPCIP26 <= 0.12\nmse = 6480000.0\nsamples = 2\nvalue = 195200.0", fillcolor="#f6d3bb"] ;
573 -> 574 ;
575 [label="node #575\nmse = 0.0\nsamples = 1\nvalue = 198800.0", fillcolor="#f6d3b9"] ;
574 -> 575 ;
576 [label="node #576\nmse = 0.0\nsamples = 1\nvalue = 193400.0", fillcolor="#f6d4bb"] ;
574 -> 576 ;
577 [label="node #577\nPCIP40 <= 0.03\nmse = 2402500.0\nsamples = 2\nvalue = 214350.0", fillcolor="#f5cfb3"] ;
573 -> 577 ;
578 [label="node #578\nmse = 0.0\nsamples = 1\nvalue = 212800.0", fillcolor="#f5cfb4"] ;
577 -> 578 ;
579 [label="node #579\nmse = 0.0\nsamples = 1\nvalue = 215900.0", fillcolor="#f5ceb3"] ;
577 -> 579 ;
580 [label="node #580\nPCIP54 <= 0.02\nmse = 118788055.56\nsamples = 4\nvalue = 177516.67", fillcolor="#f7d8c1"] ;
572 -> 580 ;
581 [label="node #581\nPCIP42 <= 0.14\nmse = 3422500.0\nsamples = 2\nvalue = 164250.0", fillcolor="#f8dbc7"] ;
580 -> 581 ;
582 [label="node #582\nmse = 0.0\nsamples = 1\nvalue = 162400.0", fillcolor="#f8dcc7"] ;
581 -> 582 ;
583 [label="node #583\nmse = 0.0\nsamples = 1\nvalue = 166100.0", fillcolor="#f7dbc6"] ;
581 -> 583 ;
584 [label="node #584\nPCIP03 <= 0.01\nmse = 44467500.0\nsamples = 2\nvalue = 184150.0", fillcolor="#f7d6bf"] ;
580 -> 584 ;
585 [label="node #585\nmse = 0.0\nsamples = 1\nvalue = 180300.0", fillcolor="#f7d7c0"] ;
584 -> 585 ;
586 [label="node #586\nmse = 0.0\nsamples = 1\nvalue = 195700.0", fillcolor="#f6d3ba"] ;
584 -> 586 ;
587 [label="node #587\nPCIP13 <= 0.04\nmse = 592126745.56\nsamples = 24\nvalue = 228669.23", fillcolor="#f4cbae"] ;
571 -> 587 ;
588 [label="node #588\nPCIP16 <= 0.04\nmse = 366622497.7\nsamples = 19\nvalue = 235051.52", fillcolor="#f4caab"] ;
587 -> 588 ;
589 [label="node #589\nPCIP19 <= 0.01\nmse = 245308055.56\nsamples = 15\nvalue = 242916.67", fillcolor="#f4c8a8"] ;
588 -> 589 ;
590 [label="node #590\nPCIP42 <= 0.08\nmse = 148674958.45\nsamples = 11\nvalue = 248363.16", fillcolor="#f3c6a6"] ;
589 -> 590 ;
591 [label="node #591\nPCIP13 <= 0.03\nmse = 100394792.9\nsamples = 7\nvalue = 254153.85", fillcolor="#f3c5a4"] ;
590 -> 591 ;
592 [label="node #592\nPCIP26 <= 0.04\nmse = 40884897.96\nsamples = 4\nvalue = 262328.57", fillcolor="#f3c3a1"] ;
591 -> 592 ;
593 [label="node #593\nmse = 0.0\nsamples = 1\nvalue = 253500.0", fillcolor="#f3c5a4"] ;
592 -> 593 ;
594 [label="node #594\nPCIP54 <= 0.03\nmse = 13590400.0\nsamples = 3\nvalue = 265860.0", fillcolor="#f2c29f"] ;
592 -> 594 ;
595 [label="node #595\nmse = 0.0\nsamples = 1\nvalue = 273200.0", fillcolor="#f2c09c"] ;
594 -> 595 ;
596 [label="node #596\nPCIP03 <= 0.02\nmse = 151875.0\nsamples = 2\nvalue = 264025.0", fillcolor="#f3c3a0"] ;
594 -> 596 ;
597 [label="node #597\nmse = 0.0\nsamples = 1\nvalue = 264700.0", fillcolor="#f2c2a0"] ;
596 -> 597 ;
598 [label="node #598\nmse = 0.0\nsamples = 1\nvalue = 263800.0", fillcolor="#f3c3a0"] ;
596 -> 598 ;
599 [label="node #599\nPCIP27 <= 0.02\nmse = 901388.89\nsamples = 3\nvalue = 244616.67", fillcolor="#f4c7a7"] ;
591 -> 599 ;
600 [label="node #600\nPCIP31 <= 0.01\nmse = 6400.0\nsamples = 2\nvalue = 245040.0", fillcolor="#f3c7a7"] ;
599 -> 600 ;
601 [label="node #601\nmse = 0.0\nsamples = 1\nvalue = 245200.0", fillcolor="#f3c7a7"] ;
600 -> 601 ;
602 [label="node #602\nmse = 0.0\nsamples = 1\nvalue = 245000.0", fillcolor="#f3c7a7"] ;
600 -> 602 ;
603 [label="node #603\nmse = 0.0\nsamples = 1\nvalue = 242500.0", fillcolor="#f4c8a8"] ;
599 -> 603 ;
604 [label="node #604\nPCIP54 <= 0.03\nmse = 23214722.22\nsamples = 4\nvalue = 235816.67", fillcolor="#f4c9ab"] ;
590 -> 604 ;
605 [label="node #605\nPCIP54 <= 0.03\nmse = 4729600.0\nsamples = 3\nvalue = 237780.0", fillcolor="#f4c9aa"] ;
604 -> 605 ;
606 [label="node #606\nPCIP40 <= 0.02\nmse = 187500.0\nsamples = 2\nvalue = 238850.0", fillcolor="#f4c9aa"] ;
605 -> 606 ;
607 [label="node #607\nmse = 0.0\nsamples = 1\nvalue = 238100.0", fillcolor="#f4c9aa"] ;
606 -> 607 ;
608 [label="node #608\nmse = 0.0\nsamples = 1\nvalue = 239100.0", fillcolor="#f4c9aa"] ;
606 -> 608 ;
609 [label="node #609\nmse = 0.0\nsamples = 1\nvalue = 233500.0", fillcolor="#f4caac"] ;
605 -> 609 ;
610 [label="node #610\nmse = 0.0\nsamples = 1\nvalue = 226000.0", fillcolor="#f4ccaf"] ;
604 -> 610 ;
611 [label="node #611\nPCIP43 <= 0.02\nmse = 71437600.0\nsamples = 4\nvalue = 222220.0", fillcolor="#f5cdb0"] ;
589 -> 611 ;
612 [label="node #612\nPCIP45 <= 0.09\nmse = 13441875.0\nsamples = 3\nvalue = 218325.0", fillcolor="#f5ceb2"] ;
611 -> 612 ;
613 [label="node #613\nmse = 0.0\nsamples = 1\nvalue = 214900.0", fillcolor="#f5cfb3"] ;
612 -> 613 ;
614 [label="node #614\nPCIP44 <= 0.02\nmse = 3422500.0\nsamples = 2\nvalue = 221750.0", fillcolor="#f5cdb0"] ;
612 -> 614 ;
615 [label="node #615\nmse = 0.0\nsamples = 1\nvalue = 223600.0", fillcolor="#f5ccb0"] ;
614 -> 615 ;
616 [label="node #616\nmse = 0.0\nsamples = 1\nvalue = 219900.0", fillcolor="#f5cdb1"] ;
614 -> 616 ;
617 [label="node #617\nmse = 0.0\nsamples = 1\nvalue = 237800.0", fillcolor="#f4c9aa"] ;
611 -> 617 ;
618 [label="node #618\nPCIP42 <= 0.07\nmse = 85268395.06\nsamples = 4\nvalue = 214077.78", fillcolor="#f5cfb3"] ;
588 -> 618 ;
619 [label="node #619\nPCIP44 <= 0.01\nmse = 29160000.0\nsamples = 2\nvalue = 220900.0", fillcolor="#f5cdb1"] ;
618 -> 619 ;
620 [label="node #620\nmse = 0.0\nsamples = 1\nvalue = 231700.0", fillcolor="#f4caac"] ;
619 -> 620 ;
621 [label="node #621\nmse = 0.0\nsamples = 1\nvalue = 218200.0", fillcolor="#f5ceb2"] ;
619 -> 621 ;
622 [label="node #622\nPCIP11 <= 0.01\nmse = 24502500.0\nsamples = 2\nvalue = 205550.0", fillcolor="#f5d1b7"] ;
618 -> 622 ;
623 [label="node #623\nmse = 0.0\nsamples = 1\nvalue = 200600.0", fillcolor="#f6d2b9"] ;
622 -> 623 ;
624 [label="node #624\nmse = 0.0\nsamples = 1\nvalue = 210500.0", fillcolor="#f5d0b5"] ;
622 -> 624 ;
625 [label="node #625\nPCIP30 <= 0.01\nmse = 376175555.56\nsamples = 5\nvalue = 193566.67", fillcolor="#f6d4bb"] ;
587 -> 625 ;
626 [label="node #626\nPCIP40 <= 0.01\nmse = 35495555.56\nsamples = 3\nvalue = 210533.33", fillcolor="#f5d0b5"] ;
625 -> 626 ;
627 [label="node #627\nPCIP45 <= 0.03\nmse = 2402500.0\nsamples = 2\nvalue = 214650.0", fillcolor="#f5cfb3"] ;
626 -> 627 ;
628 [label="node #628\nmse = 0.0\nsamples = 1\nvalue = 216200.0", fillcolor="#f5ceb2"] ;
627 -> 628 ;
629 [label="node #629\nmse = 0.0\nsamples = 1\nvalue = 213100.0", fillcolor="#f5cfb4"] ;
627 -> 629 ;
630 [label="node #630\nmse = 0.0\nsamples = 1\nvalue = 202300.0", fillcolor="#f6d2b8"] ;
626 -> 630 ;
631 [label="node #631\nPCIP27 <= 0.02\nmse = 141120000.0\nsamples = 2\nvalue = 176600.0", fillcolor="#f7d8c2"] ;
625 -> 631 ;
632 [label="node #632\nmse = 0.0\nsamples = 1\nvalue = 185000.0", fillcolor="#f7d6bf"] ;
631 -> 632 ;
633 [label="node #633\nmse = 0.0\nsamples = 1\nvalue = 159800.0", fillcolor="#f8dcc8"] ;
631 -> 633 ;
634 [label="node #634\nPCIP39 <= 0.0\nmse = 597498118.54\nsamples = 110\nvalue = 202867.05", fillcolor="#f6d2b8"] ;
366 -> 634 ;
635 [label="node #635\nPCIP26 <= 0.15\nmse = 595756144.18\nsamples = 78\nvalue = 197271.31", fillcolor="#f6d3ba"] ;
634 -> 635 ;
636 [label="node #636\nPCIP45 <= 0.15\nmse = 522476911.39\nsamples = 75\nvalue = 199118.8", fillcolor="#f6d3b9"] ;
635 -> 636 ;
637 [label="node #637\nPCIP26 <= 0.04\nmse = 470635199.31\nsamples = 73\nvalue = 200643.36", fillcolor="#f6d2b8"] ;
636 -> 637 ;
638 [label="node #638\nPCIP11 <= 0.02\nmse = 382764353.54\nsamples = 25\nvalue = 189867.57", fillcolor="#f6d5bd"] ;
637 -> 638 ;
639 [label="node #639\nPCIP30 <= 0.01\nmse = 139691093.75\nsamples = 11\nvalue = 173812.5", fillcolor="#f7d9c3"] ;
638 -> 639 ;
640 [label="node #640\nPCIP45 <= 0.02\nmse = 44511715.98\nsamples = 8\nvalue = 168953.85", fillcolor="#f7dac5"] ;
639 -> 640 ;
641 [label="node #641\nmse = 0.0\nsamples = 1\nvalue = 186100.0", fillcolor="#f6d6be"] ;
640 -> 641 ;
642 [label="node #642\nPCIP31 <= 0.03\nmse = 21680208.33\nsamples = 7\nvalue = 167525.0", fillcolor="#f7dac5"] ;
640 -> 642 ;
643 [label="node #643\nPCIP27 <= 0.01\nmse = 222222.22\nsamples = 2\nvalue = 160366.67", fillcolor="#f8dcc8"] ;
642 -> 643 ;
644 [label="node #644\nmse = 0.0\nsamples = 1\nvalue = 159700.0", fillcolor="#f8dcc8"] ;
643 -> 644 ;
645 [label="node #645\nmse = 0.0\nsamples = 1\nvalue = 160700.0", fillcolor="#f8dcc8"] ;
643 -> 645 ;
646 [label="node #646\nPCIP16 <= 0.01\nmse = 6058765.43\nsamples = 5\nvalue = 169911.11", fillcolor="#f7dac4"] ;
642 -> 646 ;
647 [label="node #647\nPCIP26 <= 0.04\nmse = 3032653.06\nsamples = 3\nvalue = 168914.29", fillcolor="#f7dac5"] ;
646 -> 647 ;
648 [label="node #648\nPCIP31 <= 0.08\nmse = 640000.0\nsamples = 2\nvalue = 167500.0", fillcolor="#f7dac5"] ;
647 -> 648 ;
649 [label="node #649\nmse = 0.0\nsamples = 1\nvalue = 168300.0", fillcolor="#f7dac5"] ;
648 -> 649 ;
650 [label="node #650\nmse = 0.0\nsamples = 1\nvalue = 166700.0", fillcolor="#f7dac6"] ;
648 -> 650 ;
651 [label="node #651\nmse = 0.0\nsamples = 1\nvalue = 170800.0", fillcolor="#f7d9c4"] ;
647 -> 651 ;
652 [label="node #652\nPCIP49 <= 0.02\nmse = 1000000.0\nsamples = 2\nvalue = 173400.0", fillcolor="#f7d9c3"] ;
646 -> 652 ;
653 [label="node #653\nmse = 0.0\nsamples = 1\nvalue = 172400.0", fillcolor="#f7d9c3"] ;
652 -> 653 ;
654 [label="node #654\nmse = 0.0\nsamples = 1\nvalue = 174400.0", fillcolor="#f7d9c3"] ;
652 -> 654 ;
655 [label="node #655\nPCIP44 <= 0.01\nmse = 6562222.22\nsamples = 3\nvalue = 194866.67", fillcolor="#f6d4bb"] ;
639 -> 655 ;
656 [label="node #656\nPCIP43 <= 0.02\nmse = 302500.0\nsamples = 2\nvalue = 196650.0", fillcolor="#f6d3ba"] ;
655 -> 656 ;
657 [label="node #657\nmse = 0.0\nsamples = 1\nvalue = 197200.0", fillcolor="#f6d3ba"] ;
656 -> 657 ;
658 [label="node #658\nmse = 0.0\nsamples = 1\nvalue = 196100.0", fillcolor="#f6d3ba"] ;
656 -> 658 ;
659 [label="node #659\nmse = 0.0\nsamples = 1\nvalue = 191300.0", fillcolor="#f6d4bc"] ;
655 -> 659 ;
660 [label="node #660\nPCIP42 <= 0.03\nmse = 221938095.24\nsamples = 14\nvalue = 202100.0", fillcolor="#f6d2b8"] ;
638 -> 660 ;
661 [label="node #661\nPCIP15 <= 0.07\nmse = 162932343.75\nsamples = 4\nvalue = 216537.5", fillcolor="#f5ceb2"] ;
660 -> 661 ;
662 [label="node #662\nPCIP44 <= 0.01\nmse = 15479591.84\nsamples = 3\nvalue = 221157.14", fillcolor="#f5cdb1"] ;
661 -> 662 ;
663 [label="node #663\nPCIP15 <= 0.02\nmse = 540000.0\nsamples = 2\nvalue = 218700.0", fillcolor="#f5ceb2"] ;
662 -> 663 ;
664 [label="node #664\nmse = 0.0\nsamples = 1\nvalue = 219300.0", fillcolor="#f5ceb1"] ;
663 -> 664 ;
665 [label="node #665\nmse = 0.0\nsamples = 1\nvalue = 217800.0", fillcolor="#f5ceb2"] ;
663 -> 665 ;
666 [label="node #666\nmse = 0.0\nsamples = 1\nvalue = 227300.0", fillcolor="#f4ccae"] ;
662 -> 666 ;
667 [label="node #667\nmse = 0.0\nsamples = 1\nvalue = 184200.0", fillcolor="#f7d6bf"] ;
661 -> 667 ;
668 [label="node #668\nPCIP11 <= 0.03\nmse = 51041301.78\nsamples = 10\nvalue = 193215.38", fillcolor="#f6d4bb"] ;
660 -> 668 ;
669 [label="node #669\nPCIP03 <= 0.01\nmse = 15509600.0\nsamples = 3\nvalue = 200280.0", fillcolor="#f6d2b9"] ;
668 -> 669 ;
670 [label="node #670\nPCIP11 <= 0.03\nmse = 35555.56\nsamples = 2\nvalue = 197066.67", fillcolor="#f6d3ba"] ;
669 -> 670 ;
671 [label="node #671\nmse = 0.0\nsamples = 1\nvalue = 196800.0", fillcolor="#f6d3ba"] ;
670 -> 671 ;
672 [label="node #672\nmse = 0.0\nsamples = 1\nvalue = 197200.0", fillcolor="#f6d3ba"] ;
670 -> 672 ;
673 [label="node #673\nmse = 0.0\nsamples = 1\nvalue = 205100.0", fillcolor="#f6d1b7"] ;
669 -> 673 ;
674 [label="node #674\nPCIP51 <= 0.13\nmse = 22560000.0\nsamples = 7\nvalue = 188800.0", fillcolor="#f6d5bd"] ;
668 -> 674 ;
675 [label="node #675\nPCIP44 <= 0.04\nmse = 8069600.0\nsamples = 4\nvalue = 191820.0", fillcolor="#f6d4bc"] ;
674 -> 675 ;
676 [label="node #676\nPCIP11 <= 0.04\nmse = 565000.0\nsamples = 3\nvalue = 193200.0", fillcolor="#f6d4bb"] ;
675 -> 676 ;
677 [label="node #677\nmse = 0.0\nsamples = 1\nvalue = 194500.0", fillcolor="#f6d4bb"] ;
676 -> 677 ;
678 [label="node #678\nPCIP26 <= 0.04\nmse = 2222.22\nsamples = 2\nvalue = 192766.67", fillcolor="#f6d4bc"] ;
676 -> 678 ;
679 [label="node #679\nmse = 0.0\nsamples = 1\nvalue = 192700.0", fillcolor="#f6d4bc"] ;
678 -> 679 ;
680 [label="node #680\nmse = 0.0\nsamples = 1\nvalue = 192800.0", fillcolor="#f6d4bc"] ;
678 -> 680 ;
681 [label="node #681\nmse = 0.0\nsamples = 1\nvalue = 186300.0", fillcolor="#f6d6be"] ;
675 -> 681 ;
682 [label="node #682\nPCIP49 <= 0.01\nmse = 6175555.56\nsamples = 3\nvalue = 183766.67", fillcolor="#f7d6bf"] ;
674 -> 682 ;
683 [label="node #683\nPCIP27 <= 0.0\nmse = 422500.0\nsamples = 2\nvalue = 182050.0", fillcolor="#f7d7c0"] ;
682 -> 683 ;
684 [label="node #684\nmse = 0.0\nsamples = 1\nvalue = 182700.0", fillcolor="#f7d7bf"] ;
683 -> 684 ;
685 [label="node #685\nmse = 0.0\nsamples = 1\nvalue = 181400.0", fillcolor="#f7d7c0"] ;
683 -> 685 ;
686 [label="node #686\nmse = 0.0\nsamples = 1\nvalue = 187200.0", fillcolor="#f6d5be"] ;
682 -> 686 ;
687 [label="node #687\nPCIP15 <= 0.04\nmse = 429361731.3\nsamples = 48\nvalue = 205889.47", fillcolor="#f5d1b6"] ;
637 -> 687 ;
688 [label="node #688\nPCIP54 <= 0.0\nmse = 359744213.45\nsamples = 44\nvalue = 208226.76", fillcolor="#f5d0b6"] ;
687 -> 688 ;
689 [label="node #689\nPCIP03 <= 0.0\nmse = 1827410000.0\nsamples = 4\nvalue = 242700.0", fillcolor="#f4c8a8"] ;
688 -> 689 ;
690 [label="node #690\nPCIP16 <= 0.0\nmse = 399528888.89\nsamples = 3\nvalue = 220133.33", fillcolor="#f5cdb1"] ;
689 -> 690 ;
691 [label="node #691\nPCIP42 <= 0.05\nmse = 40000.0\nsamples = 2\nvalue = 206000.0", fillcolor="#f5d1b6"] ;
690 -> 691 ;
692 [label="node #692\nmse = 0.0\nsamples = 1\nvalue = 205800.0", fillcolor="#f5d1b7"] ;
691 -> 692 ;
693 [label="node #693\nmse = 0.0\nsamples = 1\nvalue = 206200.0", fillcolor="#f5d1b6"] ;
691 -> 693 ;
694 [label="node #694\nmse = 0.0\nsamples = 1\nvalue = 248400.0", fillcolor="#f3c6a6"] ;
690 -> 694 ;
695 [label="node #695\nmse = 0.0\nsamples = 1\nvalue = 310400.0", fillcolor="#f0b78e"] ;
689 -> 695 ;
696 [label="node #696\nPCIP16 <= 0.02\nmse = 196937077.3\nsamples = 40\nvalue = 206168.66", fillcolor="#f5d1b6"] ;
688 -> 696 ;
697 [label="node #697\nPCIP16 <= 0.01\nmse = 181677311.12\nsamples = 35\nvalue = 204022.03", fillcolor="#f6d1b7"] ;
696 -> 697 ;
698 [label="node #698\nPCIP13 <= 0.2\nmse = 155099903.98\nsamples = 33\nvalue = 205848.15", fillcolor="#f5d1b6"] ;
697 -> 698 ;
699 [label="node #699\nPCIP03 <= 0.01\nmse = 130908831.36\nsamples = 31\nvalue = 206903.85", fillcolor="#f5d1b6"] ;
698 -> 699 ;
700 [label="node #700\nPCIP27 <= 0.04\nmse = 89921997.62\nsamples = 17\nvalue = 202927.59", fillcolor="#f6d2b8"] ;
699 -> 700 ;
701 [label="node #701\nPCIP43 <= 0.03\nmse = 52918928.57\nsamples = 16\nvalue = 201750.0", fillcolor="#f6d2b8"] ;
700 -> 701 ;
702 [label="node #702\nPCIP45 <= 0.11\nmse = 36442656.0\nsamples = 14\nvalue = 203288.0", fillcolor="#f6d1b7"] ;
701 -> 702 ;
703 [label="node #703\nPCIP51 <= 0.06\nmse = 25745746.69\nsamples = 13\nvalue = 202234.78", fillcolor="#f6d2b8"] ;
702 -> 703 ;
704 [label="node #704\nPCIP51 <= 0.04\nmse = 17157600.0\nsamples = 3\nvalue = 196220.0", fillcolor="#f6d3ba"] ;
703 -> 704 ;
705 [label="node #705\nmse = 0.0\nsamples = 1\nvalue = 201000.0", fillcolor="#f6d2b8"] ;
704 -> 705 ;
706 [label="node #706\nPCIP31 <= 0.08\nmse = 3208888.89\nsamples = 2\nvalue = 193033.33", fillcolor="#f6d4bb"] ;
704 -> 706 ;
707 [label="node #707\nmse = 0.0\nsamples = 1\nvalue = 194300.0", fillcolor="#f6d4bb"] ;
706 -> 707 ;
708 [label="node #708\nmse = 0.0\nsamples = 1\nvalue = 190500.0", fillcolor="#f6d5bc"] ;
706 -> 708 ;
709 [label="node #709\nPCIP43 <= 0.03\nmse = 15290524.69\nsamples = 10\nvalue = 203905.56", fillcolor="#f6d1b7"] ;
703 -> 709 ;
710 [label="node #710\nPCIP42 <= 0.05\nmse = 8244775.09\nsamples = 9\nvalue = 203241.18", fillcolor="#f6d1b7"] ;
709 -> 710 ;
711 [label="node #711\nPCIP50 <= 0.07\nmse = 1384375.0\nsamples = 3\nvalue = 205575.0", fillcolor="#f5d1b7"] ;
710 -> 711 ;
712 [label="node #712\nPCIP26 <= 0.06\nmse = 88163.27\nsamples = 2\nvalue = 205142.86", fillcolor="#f6d1b7"] ;
711 -> 712 ;
713 [label="node #713\nmse = 0.0\nsamples = 1\nvalue = 204800.0", fillcolor="#f6d1b7"] ;
712 -> 713 ;
714 [label="node #714\nmse = 0.0\nsamples = 1\nvalue = 205400.0", fillcolor="#f6d1b7"] ;
712 -> 714 ;
715 [label="node #715\nmse = 0.0\nsamples = 1\nvalue = 208600.0", fillcolor="#f5d0b5"] ;
711 -> 715 ;
716 [label="node #716\nPCIP45 <= 0.02\nmse = 5197777.78\nsamples = 6\nvalue = 201166.67", fillcolor="#f6d2b8"] ;
710 -> 716 ;
717 [label="node #717\nmse = 0.0\nsamples = 1\nvalue = 195000.0", fillcolor="#f6d4bb"] ;
716 -> 717 ;
718 [label="node #718\nPCIP40 <= 0.01\nmse = 499843.75\nsamples = 5\nvalue = 201937.5", fillcolor="#f6d2b8"] ;
716 -> 718 ;
719 [label="node #719\nPCIP50 <= 0.02\nmse = 156875.0\nsamples = 3\nvalue = 202575.0", fillcolor="#f6d2b8"] ;
718 -> 719 ;
720 [label="node #720\nmse = 0.0\nsamples = 1\nvalue = 203200.0", fillcolor="#f6d2b8"] ;
719 -> 720 ;
721 [label="node #721\nPCIP11 <= 0.01\nmse = 35555.56\nsamples = 2\nvalue = 202366.67", fillcolor="#f6d2b8"] ;
719 -> 721 ;
722 [label="node #722\nmse = 0.0\nsamples = 1\nvalue = 202500.0", fillcolor="#f6d2b8"] ;
721 -> 722 ;
723 [label="node #723\nmse = 0.0\nsamples = 1\nvalue = 202100.0", fillcolor="#f6d2b8"] ;
721 -> 723 ;
724 [label="node #724\nPCIP44 <= 0.03\nmse = 30000.0\nsamples = 2\nvalue = 201300.0", fillcolor="#f6d2b8"] ;
718 -> 724 ;
725 [label="node #725\nmse = 0.0\nsamples = 1\nvalue = 201600.0", fillcolor="#f6d2b8"] ;
724 -> 725 ;
726 [label="node #726\nmse = 0.0\nsamples = 1\nvalue = 201200.0", fillcolor="#f6d2b8"] ;
724 -> 726 ;
727 [label="node #727\nmse = 0.0\nsamples = 1\nvalue = 215200.0", fillcolor="#f5cfb3"] ;
709 -> 727 ;
728 [label="node #728\nmse = 0.0\nsamples = 1\nvalue = 215400.0", fillcolor="#f5cfb3"] ;
702 -> 728 ;
729 [label="node #729\nPCIP19 <= 0.01\nmse = 6242222.22\nsamples = 2\nvalue = 188933.33", fillcolor="#f6d5bd"] ;
701 -> 729 ;
730 [label="node #730\nmse = 0.0\nsamples = 1\nvalue = 190700.0", fillcolor="#f6d5bc"] ;
729 -> 730 ;
731 [label="node #731\nmse = 0.0\nsamples = 1\nvalue = 185400.0", fillcolor="#f7d6be"] ;
729 -> 731 ;
732 [label="node #732\nmse = 0.0\nsamples = 1\nvalue = 235900.0", fillcolor="#f4c9ab"] ;
700 -> 732 ;
733 [label="node #733\nPCIP54 <= 0.01\nmse = 137517088.85\nsamples = 14\nvalue = 211917.39", fillcolor="#f5cfb4"] ;
699 -> 733 ;
734 [label="node #734\nmse = 0.0\nsamples = 1\nvalue = 242500.0", fillcolor="#f4c8a8"] ;
733 -> 734 ;
735 [label="node #735\nPCIP44 <= 0.06\nmse = 99321983.47\nsamples = 13\nvalue = 210527.27", fillcolor="#f5d0b5"] ;
733 -> 735 ;
736 [label="node #736\nPCIP50 <= 0.08\nmse = 53362500.0\nsamples = 10\nvalue = 206650.0", fillcolor="#f5d1b6"] ;
735 -> 736 ;
737 [label="node #737\nPCIP26 <= 0.07\nmse = 29368163.27\nsamples = 8\nvalue = 208557.14", fillcolor="#f5d0b5"] ;
736 -> 737 ;
738 [label="node #738\nPCIP40 <= 0.02\nmse = 5718400.0\nsamples = 3\nvalue = 201860.0", fillcolor="#f6d2b8"] ;
737 -> 738 ;
739 [label="node #739\nmse = 0.0\nsamples = 1\nvalue = 204700.0", fillcolor="#f6d1b7"] ;
738 -> 739 ;
740 [label="node #740\nPCIP11 <= 0.04\nmse = 568888.89\nsamples = 2\nvalue = 199966.67", fillcolor="#f6d2b9"] ;
738 -> 740 ;
741 [label="node #741\nmse = 0.0\nsamples = 1\nvalue = 198900.0", fillcolor="#f6d3b9"] ;
740 -> 741 ;
742 [label="node #742\nmse = 0.0\nsamples = 1\nvalue = 200500.0", fillcolor="#f6d2b9"] ;
740 -> 742 ;
743 [label="node #743\nPCIP03 <= 0.04\nmse = 3746172.84\nsamples = 5\nvalue = 212277.78", fillcolor="#f5cfb4"] ;
737 -> 743 ;
744 [label="node #744\nPCIP03 <= 0.02\nmse = 635555.56\nsamples = 4\nvalue = 213566.67", fillcolor="#f5cfb3"] ;
743 -> 744 ;
745 [label="node #745\nmse = 0.0\nsamples = 1\nvalue = 211900.0", fillcolor="#f5cfb4"] ;
744 -> 745 ;
746 [label="node #746\nPCIP13 <= 0.11\nmse = 96000.0\nsamples = 3\nvalue = 213900.0", fillcolor="#f5cfb3"] ;
744 -> 746 ;
747 [label="node #747\nPCIP26 <= 0.09\nmse = 7500.0\nsamples = 2\nvalue = 214050.0", fillcolor="#f5cfb3"] ;
746 -> 747 ;
748 [label="node #748\nmse = 0.0\nsamples = 1\nvalue = 213900.0", fillcolor="#f5cfb3"] ;
747 -> 748 ;
749 [label="node #749\nmse = 0.0\nsamples = 1\nvalue = 214100.0", fillcolor="#f5cfb3"] ;
747 -> 749 ;
750 [label="node #750\nmse = 0.0\nsamples = 1\nvalue = 213300.0", fillcolor="#f5cfb4"] ;
746 -> 750 ;
751 [label="node #751\nmse = 0.0\nsamples = 1\nvalue = 209700.0", fillcolor="#f5d0b5"] ;
743 -> 751 ;
752 [label="node #752\nPCIP16 <= 0.01\nmse = 17640000.0\nsamples = 2\nvalue = 193300.0", fillcolor="#f6d4bb"] ;
736 -> 752 ;
753 [label="node #753\nmse = 0.0\nsamples = 1\nvalue = 189100.0", fillcolor="#f6d5bd"] ;
752 -> 753 ;
754 [label="node #754\nmse = 0.0\nsamples = 1\nvalue = 197500.0", fillcolor="#f6d3ba"] ;
752 -> 754 ;
755 [label="node #755\nPCIP31 <= 0.07\nmse = 74888888.89\nsamples = 3\nvalue = 220866.67", fillcolor="#f5cdb1"] ;
735 -> 755 ;
756 [label="node #756\nPCIP43 <= 0.01\nmse = 1920000.0\nsamples = 2\nvalue = 214800.0", fillcolor="#f5cfb3"] ;
755 -> 756 ;
757 [label="node #757\nmse = 0.0\nsamples = 1\nvalue = 217200.0", fillcolor="#f5ceb2"] ;
756 -> 757 ;
758 [label="node #758\nmse = 0.0\nsamples = 1\nvalue = 214000.0", fillcolor="#f5cfb3"] ;
756 -> 758 ;
759 [label="node #759\nmse = 0.0\nsamples = 1\nvalue = 233000.0", fillcolor="#f4caac"] ;
755 -> 759 ;
760 [label="node #760\nPCIP40 <= 0.02\nmse = 1690000.0\nsamples = 2\nvalue = 178400.0", fillcolor="#f7d8c1"] ;
698 -> 760 ;
761 [label="node #761\nmse = 0.0\nsamples = 1\nvalue = 177100.0", fillcolor="#f7d8c2"] ;
760 -> 761 ;
762 [label="node #762\nmse = 0.0\nsamples = 1\nvalue = 179700.0", fillcolor="#f7d7c1"] ;
760 -> 762 ;
763 [label="node #763\nPCIP45 <= 0.06\nmse = 43740000.0\nsamples = 2\nvalue = 184300.0", fillcolor="#f7d6bf"] ;
697 -> 763 ;
764 [label="node #764\nmse = 0.0\nsamples = 1\nvalue = 189700.0", fillcolor="#f6d5bd"] ;
763 -> 764 ;
765 [label="node #765\nmse = 0.0\nsamples = 1\nvalue = 176200.0", fillcolor="#f7d8c2"] ;
763 -> 765 ;
766 [label="node #766\nPCIP31 <= 0.09\nmse = 24862500.0\nsamples = 5\nvalue = 222000.0", fillcolor="#f5cdb0"] ;
696 -> 766 ;
767 [label="node #767\nPCIP42 <= 0.05\nmse = 8546875.0\nsamples = 3\nvalue = 217475.0", fillcolor="#f5ceb2"] ;
766 -> 767 ;
768 [label="node #768\nmse = 0.0\nsamples = 1\nvalue = 214600.0", fillcolor="#f5cfb3"] ;
767 -> 768 ;
769 [label="node #769\nPCIP27 <= 0.02\nmse = 562500.0\nsamples = 2\nvalue = 220350.0", fillcolor="#f5cdb1"] ;
767 -> 769 ;
770 [label="node #770\nmse = 0.0\nsamples = 1\nvalue = 219600.0", fillcolor="#f5cdb1"] ;
769 -> 770 ;
771 [label="node #771\nmse = 0.0\nsamples = 1\nvalue = 221100.0", fillcolor="#f5cdb1"] ;
769 -> 771 ;
772 [label="node #772\nPCIP43 <= 0.01\nmse = 226875.0\nsamples = 2\nvalue = 226525.0", fillcolor="#f4ccae"] ;
766 -> 772 ;
773 [label="node #773\nmse = 0.0\nsamples = 1\nvalue = 225700.0", fillcolor="#f4ccaf"] ;
772 -> 773 ;
774 [label="node #774\nmse = 0.0\nsamples = 1\nvalue = 226800.0", fillcolor="#f4ccae"] ;
772 -> 774 ;
775 [label="node #775\nPCIP27 <= 0.01\nmse = 238816000.0\nsamples = 4\nvalue = 172700.0", fillcolor="#f7d9c3"] ;
687 -> 775 ;
776 [label="node #776\nmse = 0.0\nsamples = 1\nvalue = 202600.0", fillcolor="#f6d2b8"] ;
775 -> 776 ;
777 [label="node #777\nPCIP45 <= 0.03\nmse = 19141875.0\nsamples = 3\nvalue = 165225.0", fillcolor="#f8dbc6"] ;
775 -> 777 ;
778 [label="node #778\nmse = 0.0\nsamples = 1\nvalue = 172500.0", fillcolor="#f7d9c3"] ;
777 -> 778 ;
779 [label="node #779\nPCIP15 <= 0.07\nmse = 2000000.0\nsamples = 2\nvalue = 162800.0", fillcolor="#f8dbc7"] ;
777 -> 779 ;
780 [label="node #780\nmse = 0.0\nsamples = 1\nvalue = 161800.0", fillcolor="#f8dcc8"] ;
779 -> 780 ;
781 [label="node #781\nmse = 0.0\nsamples = 1\nvalue = 164800.0", fillcolor="#f8dbc6"] ;
779 -> 781 ;
782 [label="node #782\nPCIP42 <= 0.09\nmse = 66422500.0\nsamples = 2\nvalue = 156050.0", fillcolor="#f8ddca"] ;
636 -> 782 ;
783 [label="node #783\nmse = 0.0\nsamples = 1\nvalue = 147900.0", fillcolor="#f8dfcd"] ;
782 -> 783 ;
784 [label="node #784\nmse = 0.0\nsamples = 1\nvalue = 164200.0", fillcolor="#f8dbc7"] ;
782 -> 784 ;
785 [label="node #785\nPCIP13 <= 0.15\nmse = 361674400.0\nsamples = 3\nvalue = 154040.0", fillcolor="#f8decb"] ;
635 -> 785 ;
786 [label="node #786\nPCIP42 <= 0.04\nmse = 25666875.0\nsamples = 2\nvalue = 163275.0", fillcolor="#f8dbc7"] ;
785 -> 786 ;
787 [label="node #787\nmse = 0.0\nsamples = 1\nvalue = 154500.0", fillcolor="#f8ddca"] ;
786 -> 787 ;
788 [label="node #788\nmse = 0.0\nsamples = 1\nvalue = 166200.0", fillcolor="#f7dbc6"] ;
786 -> 788 ;
789 [label="node #789\nmse = 0.0\nsamples = 1\nvalue = 117100.0", fillcolor="#fae7d9"] ;
785 -> 789 ;
790 [label="node #790\nPCIP39 <= 0.03\nmse = 370865655.01\nsamples = 32\nvalue = 215509.26", fillcolor="#f5ceb3"] ;
634 -> 790 ;
791 [label="node #791\nPCIP11 <= 0.01\nmse = 152180710.06\nsamples = 14\nvalue = 228307.69", fillcolor="#f4cbae"] ;
790 -> 791 ;
792 [label="node #792\nPCIP43 <= 0.03\nmse = 18725207.1\nsamples = 7\nvalue = 218330.77", fillcolor="#f5ceb2"] ;
791 -> 792 ;
793 [label="node #793\nPCIP11 <= 0.01\nmse = 5605950.41\nsamples = 6\nvalue = 216736.36", fillcolor="#f5ceb2"] ;
792 -> 793 ;
794 [label="node #794\nPCIP31 <= 0.08\nmse = 1770000.0\nsamples = 4\nvalue = 215500.0", fillcolor="#f5ceb3"] ;
793 -> 794 ;
795 [label="node #795\nPCIP40 <= 0.04\nmse = 400000.0\nsamples = 3\nvalue = 216200.0", fillcolor="#f5ceb2"] ;
794 -> 795 ;
796 [label="node #796\nPCIP30 <= 0.01\nmse = 120000.0\nsamples = 2\nvalue = 215800.0", fillcolor="#f5ceb3"] ;
795 -> 796 ;
797 [label="node #797\nmse = 0.0\nsamples = 1\nvalue = 215200.0", fillcolor="#f5cfb3"] ;
796 -> 797 ;
798 [label="node #798\nmse = 0.0\nsamples = 1\nvalue = 216000.0", fillcolor="#f5ceb3"] ;
796 -> 798 ;
799 [label="node #799\nmse = 0.0\nsamples = 1\nvalue = 217000.0", fillcolor="#f5ceb2"] ;
795 -> 799 ;
800 [label="node #800\nmse = 0.0\nsamples = 1\nvalue = 213400.0", fillcolor="#f5cfb4"] ;
794 -> 800 ;
801 [label="node #801\nPCIP45 <= 0.04\nmse = 888888.89\nsamples = 2\nvalue = 220033.33", fillcolor="#f5cdb1"] ;
793 -> 801 ;
802 [label="node #802\nmse = 0.0\nsamples = 1\nvalue = 218700.0", fillcolor="#f5ceb2"] ;
801 -> 802 ;
803 [label="node #803\nmse = 0.0\nsamples = 1\nvalue = 220700.0", fillcolor="#f5cdb1"] ;
801 -> 803 ;
804 [label="node #804\nmse = 0.0\nsamples = 1\nvalue = 227100.0", fillcolor="#f4ccae"] ;
792 -> 804 ;
805 [label="node #805\nPCIP27 <= 0.01\nmse = 86558224.85\nsamples = 7\nvalue = 238284.62", fillcolor="#f4c9aa"] ;
791 -> 805 ;
806 [label="node #806\nPCIP11 <= 0.02\nmse = 46252500.0\nsamples = 4\nvalue = 245850.0", fillcolor="#f3c7a7"] ;
805 -> 806 ;
807 [label="node #807\nmse = 0.0\nsamples = 1\nvalue = 260300.0", fillcolor="#f3c3a1"] ;
806 -> 807 ;
808 [label="node #808\nPCIP44 <= 0.01\nmse = 5390400.0\nsamples = 3\nvalue = 242960.0", fillcolor="#f4c8a8"] ;
806 -> 808 ;
809 [label="node #809\nmse = 0.0\nsamples = 1\nvalue = 245700.0", fillcolor="#f3c7a7"] ;
808 -> 809 ;
810 [label="node #810\nPCIP26 <= 0.04\nmse = 642222.22\nsamples = 2\nvalue = 241133.33", fillcolor="#f4c8a9"] ;
808 -> 810 ;
811 [label="node #811\nmse = 0.0\nsamples = 1\nvalue = 241700.0", fillcolor="#f4c8a9"] ;
810 -> 811 ;
812 [label="node #812\nmse = 0.0\nsamples = 1\nvalue = 240000.0", fillcolor="#f4c8a9"] ;
810 -> 812 ;
813 [label="node #813\nPCIP26 <= 0.06\nmse = 29997142.86\nsamples = 3\nvalue = 231800.0", fillcolor="#f4caac"] ;
805 -> 813 ;
814 [label="node #814\nPCIP30 <= 0.01\nmse = 2135555.56\nsamples = 2\nvalue = 233966.67", fillcolor="#f4caac"] ;
813 -> 814 ;
815 [label="node #815\nmse = 0.0\nsamples = 1\nvalue = 231900.0", fillcolor="#f4caac"] ;
814 -> 815 ;
816 [label="node #816\nmse = 0.0\nsamples = 1\nvalue = 235000.0", fillcolor="#f4caab"] ;
814 -> 816 ;
817 [label="node #817\nmse = 0.0\nsamples = 1\nvalue = 218800.0", fillcolor="#f5ceb1"] ;
813 -> 817 ;
818 [label="node #818\nPCIP44 <= 0.05\nmse = 280594732.14\nsamples = 18\nvalue = 203625.0", fillcolor="#f6d1b7"] ;
790 -> 818 ;
819 [label="node #819\nPCIP13 <= 0.07\nmse = 181154320.99\nsamples = 17\nvalue = 201644.44", fillcolor="#f6d2b8"] ;
818 -> 819 ;
820 [label="node #820\nPCIP50 <= 0.06\nmse = 112987755.1\nsamples = 5\nvalue = 215771.43", fillcolor="#f5ceb3"] ;
819 -> 820 ;
821 [label="node #821\nPCIP43 <= 0.01\nmse = 8946400.0\nsamples = 3\nvalue = 221760.0", fillcolor="#f5cdb0"] ;
820 -> 821 ;
822 [label="node #822\nmse = 0.0\nsamples = 1\nvalue = 224200.0", fillcolor="#f5ccaf"] ;
821 -> 822 ;
823 [label="node #823\nPCIP14 <= 0.0\nmse = 40000.0\nsamples = 2\nvalue = 218100.0", fillcolor="#f5ceb2"] ;
821 -> 823 ;
824 [label="node #824\nmse = 0.0\nsamples = 1\nvalue = 218300.0", fillcolor="#f5ceb2"] ;
823 -> 824 ;
825 [label="node #825\nmse = 0.0\nsamples = 1\nvalue = 217900.0", fillcolor="#f5ceb2"] ;
823 -> 825 ;
826 [label="node #826\nPCIP26 <= 0.09\nmse = 59290000.0\nsamples = 2\nvalue = 200800.0", fillcolor="#f6d2b8"] ;
820 -> 826 ;
827 [label="node #827\nmse = 0.0\nsamples = 1\nvalue = 208500.0", fillcolor="#f5d0b5"] ;
826 -> 827 ;
828 [label="node #828\nmse = 0.0\nsamples = 1\nvalue = 193100.0", fillcolor="#f6d4bb"] ;
826 -> 828 ;
829 [label="node #829\nPCIP14 <= 0.02\nmse = 110715000.0\nsamples = 12\nvalue = 196700.0", fillcolor="#f6d3ba"] ;
819 -> 829 ;
830 [label="node #830\nPCIP13 <= 0.14\nmse = 59455678.67\nsamples = 11\nvalue = 195010.53", fillcolor="#f6d4bb"] ;
829 -> 830 ;
831 [label="node #831\nPCIP24 <= 0.03\nmse = 38537155.56\nsamples = 8\nvalue = 197746.67", fillcolor="#f6d3ba"] ;
830 -> 831 ;
832 [label="node #832\nPCIP51 <= 0.06\nmse = 4088395.06\nsamples = 4\nvalue = 202277.78", fillcolor="#f6d2b8"] ;
831 -> 832 ;
833 [label="node #833\nPCIP13 <= 0.11\nmse = 10000.0\nsamples = 2\nvalue = 204500.0", fillcolor="#f6d1b7"] ;
832 -> 833 ;
834 [label="node #834\nmse = 0.0\nsamples = 1\nvalue = 204600.0", fillcolor="#f6d1b7"] ;
833 -> 834 ;
835 [label="node #835\nmse = 0.0\nsamples = 1\nvalue = 204400.0", fillcolor="#f6d1b7"] ;
833 -> 835 ;
836 [label="node #836\nPCIP51 <= 0.15\nmse = 240000.0\nsamples = 2\nvalue = 200500.0", fillcolor="#f6d2b9"] ;
832 -> 836 ;
837 [label="node #837\nmse = 0.0\nsamples = 1\nvalue = 200100.0", fillcolor="#f6d2b9"] ;
836 -> 837 ;
838 [label="node #838\nmse = 0.0\nsamples = 1\nvalue = 201100.0", fillcolor="#f6d2b8"] ;
836 -> 838 ;
839 [label="node #839\nPCIP50 <= 0.04\nmse = 13219166.67\nsamples = 4\nvalue = 190950.0", fillcolor="#f6d5bc"] ;
831 -> 839 ;
840 [label="node #840\nPCIP44 <= 0.01\nmse = 40000.0\nsamples = 2\nvalue = 193500.0", fillcolor="#f6d4bb"] ;
839 -> 840 ;
841 [label="node #841\nmse = 0.0\nsamples = 1\nvalue = 193700.0", fillcolor="#f6d4bb"] ;
840 -> 841 ;
842 [label="node #842\nmse = 0.0\nsamples = 1\nvalue = 193300.0", fillcolor="#f6d4bb"] ;
840 -> 842 ;
843 [label="node #843\nPCIP43 <= 0.01\nmse = 562500.0\nsamples = 2\nvalue = 185850.0", fillcolor="#f6d6be"] ;
839 -> 843 ;
844 [label="node #844\nmse = 0.0\nsamples = 1\nvalue = 185100.0", fillcolor="#f7d6bf"] ;
843 -> 844 ;
845 [label="node #845\nmse = 0.0\nsamples = 1\nvalue = 186600.0", fillcolor="#f6d6be"] ;
843 -> 845 ;
846 [label="node #846\nPCIP45 <= 0.07\nmse = 4547500.0\nsamples = 3\nvalue = 184750.0", fillcolor="#f7d6bf"] ;
830 -> 846 ;
847 [label="node #847\nPCIP14 <= 0.0\nmse = 1075555.56\nsamples = 2\nvalue = 185866.67", fillcolor="#f6d6be"] ;
846 -> 847 ;
848 [label="node #848\nmse = 0.0\nsamples = 1\nvalue = 184400.0", fillcolor="#f7d6bf"] ;
847 -> 848 ;
849 [label="node #849\nmse = 0.0\nsamples = 1\nvalue = 186600.0", fillcolor="#f6d6be"] ;
847 -> 849 ;
850 [label="node #850\nmse = 0.0\nsamples = 1\nvalue = 181400.0", fillcolor="#f7d7c0"] ;
846 -> 850 ;
851 [label="node #851\nmse = 0.0\nsamples = 1\nvalue = 228800.0", fillcolor="#f4cbae"] ;
829 -> 851 ;
852 [label="node #852\nmse = 0.0\nsamples = 1\nvalue = 257100.0", fillcolor="#f3c4a3"] ;
818 -> 852 ;
853 [label="node #853\nPCIP26 <= 0.09\nmse = 1141086755.98\nsamples = 182\nvalue = 194984.15", fillcolor="#f6d4bb"] ;
365 -> 853 ;
854 [label="node #854\nPCIP24 <= 0.04\nmse = 1049578136.1\nsamples = 164\nvalue = 198588.24", fillcolor="#f6d3b9"] ;
853 -> 854 ;
855 [label="node #855\nPCIP31 <= 0.05\nmse = 1076619940.51\nsamples = 101\nvalue = 206860.98", fillcolor="#f5d1b6"] ;
854 -> 855 ;
856 [label="node #856\nPCIP26 <= 0.05\nmse = 1140640106.61\nsamples = 63\nvalue = 215444.55", fillcolor="#f5ceb3"] ;
855 -> 856 ;
857 [label="node #857\nPCIP45 <= 0.01\nmse = 1039765971.04\nsamples = 43\nvalue = 205277.46", fillcolor="#f6d1b7"] ;
856 -> 857 ;
858 [label="node #858\nPCIP39 <= 0.0\nmse = 1405386942.15\nsamples = 6\nvalue = 235481.82", fillcolor="#f4caab"] ;
857 -> 858 ;
859 [label="node #859\nPCIP50 <= 0.02\nmse = 262619506.17\nsamples = 4\nvalue = 250877.78", fillcolor="#f3c6a5"] ;
858 -> 859 ;
860 [label="node #860\nPCIP43 <= 0.06\nmse = 4033593.75\nsamples = 3\nvalue = 245187.5", fillcolor="#f3c7a7"] ;
859 -> 860 ;
861 [label="node #861\nmse = 0.0\nsamples = 1\nvalue = 247600.0", fillcolor="#f3c7a6"] ;
860 -> 861 ;
862 [label="node #862\nPCIP45 <= 0.0\nmse = 866400.0\nsamples = 2\nvalue = 243740.0", fillcolor="#f4c8a8"] ;
860 -> 862 ;
863 [label="node #863\nmse = 0.0\nsamples = 1\nvalue = 242600.0", fillcolor="#f4c8a8"] ;
862 -> 863 ;
864 [label="node #864\nmse = 0.0\nsamples = 1\nvalue = 244500.0", fillcolor="#f4c7a8"] ;
862 -> 864 ;
865 [label="node #865\nmse = 0.0\nsamples = 1\nvalue = 296400.0", fillcolor="#f1bb93"] ;
859 -> 865 ;
866 [label="node #866\nPCIP26 <= 0.01\nmse = 681210000.0\nsamples = 2\nvalue = 166200.0", fillcolor="#f7dbc6"] ;
858 -> 866 ;
867 [label="node #867\nmse = 0.0\nsamples = 1\nvalue = 192300.0", fillcolor="#f6d4bc"] ;
866 -> 867 ;
868 [label="node #868\nmse = 0.0\nsamples = 1\nvalue = 140100.0", fillcolor="#f9e1d0"] ;
866 -> 868 ;
869 [label="node #869\nPCIP43 <= 0.16\nmse = 774816400.0\nsamples = 37\nvalue = 199740.0", fillcolor="#f6d2b9"] ;
857 -> 869 ;
870 [label="node #870\nPCIP42 <= 0.04\nmse = 545845562.13\nsamples = 33\nvalue = 194346.15", fillcolor="#f6d4bb"] ;
869 -> 870 ;
871 [label="node #871\nPCIP26 <= 0.02\nmse = 253305318.56\nsamples = 12\nvalue = 176568.42", fillcolor="#f7d8c2"] ;
870 -> 871 ;
872 [label="node #872\nPCIP43 <= 0.11\nmse = 153950578.51\nsamples = 7\nvalue = 185681.82", fillcolor="#f7d6be"] ;
871 -> 872 ;
873 [label="node #873\nPCIP44 <= 0.03\nmse = 16974400.0\nsamples = 6\nvalue = 181960.0", fillcolor="#f7d7c0"] ;
872 -> 873 ;
874 [label="node #874\nmse = 0.0\nsamples = 1\nvalue = 190200.0", fillcolor="#f6d5bd"] ;
873 -> 874 ;
875 [label="node #875\nmse = 0.0\nsamples = 5\nvalue = 179900.0", fillcolor="#f7d7c1"] ;
873 -> 875 ;
876 [label="node #876\nmse = 0.0\nsamples = 1\nvalue = 222900.0", fillcolor="#f5cdb0"] ;
872 -> 876 ;
